{"CSCRecSegments2DsV2Datas":[{"name":"CSCRecHit2Ds_V2","u1":[1.02581,-0.479837,5.84855],"u2":[1.02862,-0.474964,5.84855],"v1":[0.999421,-0.461363,5.84855],"v2":[1.055,-0.493439,5.84855],"w1":[1.02721,-0.477401,5.84855],"w2":[1.02721,-0.477401,5.84855],"endcap":1,"station":1,"ring":4,"chamber":34,"layer":3,"tpeak":-5.92989,"positionWithinStrip":-0.0300483,"errorWithinStrip":0.0397258,"strips":"46 47 48 ","WireGroups":"central wire: 1 of 1 wiregroup"},{"name":"CSCRecHit2Ds_V2","u1":[1.02491,-0.481392,5.87055],"u2":[1.02772,-0.476523,5.87055],"v1":[0.998523,-0.46292,5.87055],"v2":[1.0541,-0.494996,5.87055],"w1":[1.02631,-0.478958,5.87055],"w2":[1.02631,-0.478958,5.87055],"endcap":1,"station":1,"ring":4,"chamber":34,"layer":4,"tpeak":1.81065,"positionWithinStrip":-0.439599,"errorWithinStrip":0.0301064,"strips":"46 47 48 ","WireGroups":"central wire: 1 of 1 wiregroup"},{"name":"CSCRecHit2Ds_V2","u1":[1.02297,-0.482079,5.89255],"u2":[1.02568,-0.477378,5.89255],"v1":[0.996599,-0.463727,5.89255],"v2":[1.05206,-0.49573,5.89255],"w1":[1.02433,-0.479728,5.89255],"w2":[1.02433,-0.479728,5.89255],"endcap":1,"station":1,"ring":4,"chamber":34,"layer":5,"tpeak":4.86592,"positionWithinStrip":0.208016,"errorWithinStrip":0.0975509,"strips":"45 46 47 ","WireGroups":"central wire: 1 of 1 wiregroup"},{"name":"CSCRecHit2Ds_V2","u1":[1.02197,-0.483806,5.91455],"u2":[1.02466,-0.479157,5.91455],"v1":[0.995588,-0.46548,5.91455],"v2":[1.05104,-0.497483,5.91455],"w1":[1.02332,-0.481481,5.91455],"w2":[1.02332,-0.481481,5.91455],"endcap":1,"station":1,"ring":4,"chamber":34,"layer":6,"tpeak":3.23143,"positionWithinStrip":-0.253955,"errorWithinStrip":0.0441566,"strips":"45 46 47 ","WireGroups":"central wire: 1 of 1 wiregroup"}],"CSCSegments_V2":[{"name":"CSCSegments_V2","detid":604017424,"pos_1":[1.03241,-0.474414,5.78775],"pos_2":[1.02211,-0.482699,5.93475],"endcap":1,"station":1,"ring":4,"chamber":34,"layer":0}],"MatchingCSCs_V1":[{"name":"MatchingCSCs_V1","detid":604017424,"front_1":[0.950814,-0.37271,5.78775],"front_2":[0.800215,-0.633673,5.78775],"front_3":[2.12643,-1.57665,5.78775],"front_4":[2.43083,-1.04919,5.78775],"back_1":[0.950814,-0.37271,5.93475],"back_2":[0.800215,-0.633673,5.93475],"back_3":[2.12643,-1.57665,5.93475],"back_4":[2.43083,-1.04919,5.93475]}],"ebHitDatas":[{"energy":0.37929,"eta":-0.156191,"phi":-2.52034,"time":8.2805,"detid":838865634,"front_1":[-1.04488,-0.761351,-0.21384],"front_2":[-1.04661,-0.762481,-0.191761],"front_3":[-1.05818,-0.743987,-0.191761],"front_4":[-1.05643,-0.74289,-0.21384],"back_1":[-1.23657,-0.886014,-0.239271],"back_2":[-1.23861,-0.887349,-0.213198],"back_3":[-1.2523,-0.865471,-0.213198],"back_4":[-1.25023,-0.864176,-0.239271],"geometricVertices":[[-1.04488,-0.761351,-0.21384],[-1.04661,-0.762481,-0.191761],[-1.05818,-0.743987,-0.191761],[-1.05643,-0.74289,-0.21384],[-1.0975395837508144,-0.795597448375647,-0.22082620624115482],[-1.0993632627777197,-0.7967893042527515,-0.19765095674044778],[-1.1115233486054161,-0.7773702854006819,-0.19765179622941637],[-1.1096778713257855,-0.7762141554263119,-0.22082734063821494]],"scale":0.0632033073881332,"deltaPhi":0.0,"deltaEta":0.0},{"energy":0.521992,"eta":-0.244768,"phi":0.670495,"time":-0.265291,"detid":838868017,"front_1":[1.00265,0.809175,-0.329865],"front_2":[1.00587,0.811518,-0.307925],"front_3":[1.01872,0.793849,-0.307925],"front_4":[1.01546,0.791566,-0.329865],"back_1":[1.18506,0.941913,-0.374823],"back_2":[1.18885,0.944671,-0.348998],"back_3":[1.20403,0.923818,-0.348998],"back_4":[1.20019,0.92113,-0.374823],"geometricVertices":[[1.00265,0.809175,-0.329865],[1.00587,0.811518,-0.307925],[1.01872,0.793849,-0.307925],[1.01546,0.791566,-0.329865],[1.0716256147436949,0.8593678904657013,-0.3468651956452335],[1.07507136212156,0.8618752465328018,-0.32345843286926895],[1.0887890800889743,0.8429926418438504,-0.3234554480410903],[1.0853002063090968,0.8405497952158926,-0.3468621092689026]],"scale":0.08698257489031197,"deltaPhi":0.0,"deltaEta":0.0},{"energy":0.142247,"eta":-0.278952,"phi":0.37307,"time":-11.4301,"detid":838869024,"front_1":[1.1979,0.480652,-0.376175],"front_2":[1.20239,0.482226,-0.354266],"front_3":[1.20917,0.461419,-0.354266],"front_4":[1.20465,0.459945,-0.376175],"back_1":[1.40964,0.55367,-0.428747],"back_2":[1.41491,0.555515,-0.403067],"back_3":[1.42288,0.531038,-0.403067],"back_4":[1.41758,0.529311,-0.428747],"geometricVertices":[[1.1979,0.480652,-0.376175],[1.20239,0.482226,-0.354266],[1.20917,0.461419,-0.354266],[1.20465,0.459945,-0.376175],[1.219715565766929,0.4881750423215719,-0.3815914915627609],[1.2242883507447047,0.48977779854944786,-0.35929452162004677],[1.2311945618324793,0.4685938068420541,-0.35929534182764883],[1.22659120379394,0.46709276472253997,-0.3815922402472879]],"scale":0.023703448195417184,"deltaPhi":0.0,"deltaEta":0.0},{"energy":0.100709,"eta":-0.279201,"phi":0.39044,"time":24.0691,"detid":838869025,"front_1":[1.1881,0.500883,-0.376175],"front_2":[1.19257,0.502513,-0.354266],"front_3":[1.20007,0.481956,-0.354266],"front_4":[1.19556,0.480424,-0.376175],"back_1":[1.39847,0.577643,-0.428747],"back_2":[1.40371,0.579554,-0.403067],"back_3":[1.41254,0.555371,-0.403067],"back_4":[1.40726,0.553576,-0.428747],"geometricVertices":[[1.1881,0.500883,-0.376175],[1.19257,0.502513,-0.354266],[1.20007,0.481956,-0.354266],[1.19556,0.480424,-0.376175],[1.2034477838013813,0.5064831135361222,-0.380010450349414],[1.2079760706715956,0.5081343843450336,-0.35782682056855425],[1.2155705008626576,0.4873119056376524,-0.357826219996228],[1.21100182866064,0.48575985569288216,-0.38000970862705324]],"scale":0.016781728713521335,"deltaPhi":0.0,"deltaEta":0.0},{"energy":0.295777,"eta":-0.278971,"phi":0.407645,"time":-0.994539,"detid":838869026,"front_1":[1.18049,0.521737,-0.376175],"front_2":[1.18492,0.523466,-0.354266],"front_3":[1.19242,0.502909,-0.354266],"front_4":[1.18795,0.501278,-0.376175],"back_1":[1.38955,0.602105,-0.428747],"back_2":[1.39474,0.604133,-0.403067],"back_3":[1.40357,0.57995,-0.403067],"back_4":[1.39833,0.578038,-0.428747],"geometricVertices":[[1.18049,0.521737,-0.376175],[1.18492,0.523466,-0.354266],[1.19242,0.502909,-0.354266],[1.18795,0.501278,-0.376175],[1.225277545858668,0.5389544757752293,-0.38743765598814645],[1.2298770647834036,0.5407501080206025,-0.36472234219090116],[1.2376671506555303,0.5194180491766646,-0.3647235240309758],[1.2330259787955065,0.5177245830038173,-0.3874390667232501]],"scale":0.049287048562682574,"deltaPhi":0.0,"deltaEta":0.0},{"energy":1.42366,"eta":-0.279221,"phi":0.425015,"time":-0.593156,"detid":838869027,"front_1":[1.16998,0.541612,-0.376175],"front_2":[1.17439,0.543398,-0.354266],"front_3":[1.1826,0.523115,-0.354266],"front_4":[1.17816,0.521427,-0.376175],"back_1":[1.37755,0.625673,-0.428747],"back_2":[1.38272,0.627766,-0.403067],"back_3":[1.39238,0.603906,-0.403067],"back_4":[1.38717,0.601928,-0.428747],"geometricVertices":[[1.16998,0.541612,-0.376175],[1.17439,0.543398,-0.354266],[1.1826,0.523115,-0.354266],[1.17816,0.521427,-0.376175],[1.3840463257683044,0.6283038601455385,-0.430392347778057],[1.3892695257669585,0.6304183803096375,-0.4046012169008465],[1.398943448238939,0.606433731655411,-0.404593851165547],[1.3936828143747675,0.6044364353379416,-0.4303851593096516]],"scale":0.23723277860262518,"deltaPhi":0.0,"deltaEta":0.0},{"energy":0.0,"eta":-0.296341,"phi":0.373062,"time":24.0691,"detid":838869536,"front_1":[1.1979,0.480652,-0.399599],"front_2":[1.20274,0.482339,-0.377773],"front_3":[1.20952,0.461532,-0.377773],"front_4":[1.20465,0.459945,-0.399599],"back_1":[1.40878,0.553388,-0.455913],"back_2":[1.41445,0.555365,-0.43033],"back_3":[1.42242,0.530889,-0.43033],"back_4":[1.41671,0.529029,-0.455913],"geometricVertices":[[1.1979,0.480652,-0.399599],[1.20274,0.482339,-0.377773],[1.20952,0.461532,-0.377773],[1.20465,0.459945,-0.399599],[1.1979,0.480652,-0.399599],[1.20274,0.482339,-0.377773],[1.20952,0.461532,-0.377773],[1.20465,0.459945,-0.399599]],"scale":0.0,"deltaPhi":0.0,"deltaEta":0.0},{"energy":0.143419,"eta":-0.296605,"phi":0.390434,"time":-0.0086835,"detid":838869537,"front_1":[1.1881,0.500883,-0.399599],"front_2":[1.19291,0.502639,-0.377773],"front_3":[1.20041,0.482081,-0.377773],"front_4":[1.19556,0.480424,-0.399599],"back_1":[1.39762,0.577331,-0.455913],"back_2":[1.40326,0.579389,-0.43033],"back_3":[1.41208,0.555206,-0.43033],"back_4":[1.4064,0.553264,-0.455913],"geometricVertices":[[1.1881,0.500883,-0.399599],[1.19291,0.502639,-0.377773],[1.20041,0.482081,-0.377773],[1.19556,0.480424,-0.399599],[1.2098677978985435,0.5088254618831035,-0.40544966710031777],[1.2147669771368208,0.5106139132172617,-0.38323407510045115],[1.2224012733429461,0.4896782592393959,-0.3832333644970247],[1.217461576001001,0.48799045226670895,-0.40544876926067336]],"scale":0.023898745398767893,"deltaPhi":0.0,"deltaEta":0.0},{"energy":0.207296,"eta":-0.296361,"phi":0.407637,"time":4.05992,"detid":838869538,"front_1":[1.18049,0.521737,-0.399599],"front_2":[1.18526,0.523592,-0.377773],"front_3":[1.19277,0.503034,-0.377773],"front_4":[1.18795,0.501278,-0.399599],"back_1":[1.38869,0.601793,-0.455913],"back_2":[1.39429,0.603967,-0.43033],"back_3":[1.40312,0.579784,-0.43033],"back_4":[1.39747,0.577726,-0.455913],"geometricVertices":[[1.18049,0.521737,-0.399599],[1.18526,0.523592,-0.377773],[1.19277,0.503034,-0.377773],[1.18795,0.501278,-0.399599],[1.2117507572134483,0.5337572266065312,-0.40805441922054814],[1.216648804885258,0.5356614407149816,-0.38566517537365214],[1.224361796990318,0.5145608382172897,-0.385666368549656],[1.2194128984526214,0.5127579334712963,-0.408055479875243]],"scale":0.03454294288889889,"deltaPhi":0.0,"deltaEta":0.0},{"energy":0.166657,"eta":-0.296626,"phi":0.42501,"time":-11.4441,"detid":838869539,"front_1":[1.16998,0.541612,-0.399599],"front_2":[1.17473,0.543535,-0.377773],"front_3":[1.18294,0.523252,-0.377773],"front_4":[1.17816,0.521427,-0.399599],"back_1":[1.37671,0.625331,-0.455913],"back_2":[1.38227,0.627585,-0.43033],"back_3":[1.39193,0.603725,-0.43033],"back_4":[1.38632,0.601586,-0.455913],"geometricVertices":[[1.16998,0.541612,-0.399599],[1.17473,0.543535,-0.377773],[1.18294,0.523252,-0.377773],[1.17816,0.521427,-0.399599],[1.194937214010034,0.5517188688613459,-0.40639743539767353],[1.1997892479099896,0.5536835486500656,-0.3841189520690244],[1.2081706380696506,0.5329672262662281,-0.38411802437928433],[1.2032875016410014,0.5311031885282524,-0.40639680038149184]],"scale":0.027771029026296804,"deltaPhi":0.0,"deltaEta":0.0},{"energy":0.0280389,"eta":-0.313711,"phi":0.373054,"time":-7.80794,"detid":838870048,"front_1":[1.1979,0.480652,-0.423119],"front_2":[1.20309,0.482452,-0.401381],"front_3":[1.20987,0.461645,-0.401381],"front_4":[1.20465,0.459945,-0.423119],"back_1":[1.40785,0.553086,-0.483158],"back_2":[1.41393,0.555196,-0.457679],"back_3":[1.4219,0.53072,-0.457679],"back_4":[1.41579,0.528727,-0.483158],"geometricVertices":[[1.1979,0.480652,-0.423119],[1.20309,0.482452,-0.401381],[1.20987,0.461645,-0.401381],[1.20465,0.459945,-0.423119],[1.2021637605302908,0.48212302276852154,-0.42433829944500184],[1.207372470570295,0.48392953765493046,-0.4025244952009413],[1.214177338018453,0.463048241869663,-0.4025246802139455],[1.2089385200563698,0.4613420492872844,-0.42433846791543234]],"scale":0.004672285627158976,"deltaPhi":0.0,"deltaEta":0.0},{"energy":0.0349827,"eta":-0.313989,"phi":0.390429,"time":24.0691,"detid":838870049,"front_1":[1.1881,0.500883,-0.423119],"front_2":[1.19325,0.502764,-0.401381],"front_3":[1.20075,0.482206,-0.401381],"front_4":[1.19556,0.480424,-0.423119],"back_1":[1.3967,0.576997,-0.483158],"back_2":[1.40275,0.579202,-0.457679],"back_3":[1.41157,0.555019,-0.457679],"back_4":[1.40548,0.55293,-0.483158],"geometricVertices":[[1.1881,0.500883,-0.423119],[1.19325,0.502764,-0.401381],[1.20075,0.482206,-0.401381],[1.19556,0.480424,-0.423119],[1.1933863878768065,0.5028118980194403,-0.4246405217724621],[1.198559672551486,0.5047012828185703,-0.4028078446076542],[1.2060924311593464,0.48405116857985725,-0.40280765871079066],[1.2008790241362854,0.4822611816121643,-0.4246402885390551]],"scale":0.005829371566260242,"deltaPhi":0.0,"deltaEta":0.0},{"energy":0.0,"eta":-0.313732,"phi":0.407628,"time":24.0691,"detid":838870050,"front_1":[1.18049,0.521737,-0.423119],"front_2":[1.18561,0.523717,-0.401381],"front_3":[1.19311,0.503159,-0.401381],"front_4":[1.18795,0.501278,-0.423119],"back_1":[1.38778,0.601459,-0.483158],"back_2":[1.39378,0.60378,-0.457679],"back_3":[1.4026,0.579597,-0.457679],"back_4":[1.39656,0.577392,-0.483158],"geometricVertices":[[1.18049,0.521737,-0.423119],[1.18561,0.523717,-0.401381],[1.19311,0.503159,-0.401381],[1.18795,0.501278,-0.423119],[1.18049,0.521737,-0.423119],[1.18561,0.523717,-0.401381],[1.19311,0.503159,-0.401381],[1.18795,0.501278,-0.423119]],"scale":0.0,"deltaPhi":0.0,"deltaEta":0.0},{"energy":0.152718,"eta":-0.314012,"phi":0.425004,"time":-9.40442,"detid":838870051,"front_1":[1.16998,0.541612,-0.423119],"front_2":[1.17507,0.543672,-0.401381],"front_3":[1.18328,0.523389,-0.401381],"front_4":[1.17816,0.521427,-0.423119],"back_1":[1.3758,0.624966,-0.483158],"back_2":[1.38176,0.62738,-0.457679],"back_3":[1.39143,0.60352,-0.457679],"back_4":[1.38542,0.60122,-0.483158],"geometricVertices":[[1.16998,0.541612,-0.423119],[1.17507,0.543672,-0.401381],[1.18328,0.523389,-0.401381],[1.17816,0.521427,-0.423119],[1.192749793861092,0.5508334235618378,-0.429761093351599],[1.19793975739963,0.5529340913077955,-0.40761023993460915],[1.2063070341149247,0.5322536614012155,-0.40760908535480195],[1.201086096314983,0.53025331478945,-0.4297602230852806]],"scale":0.025448292065967795,"deltaPhi":0.0,"deltaEta":0.0},{"energy":0.0,"eta":-0.473292,"phi":3.06493,"time":24.0691,"detid":838874810,"front_1":[-1.28945,0.0879225,-0.646981],"front_2":[-1.29806,0.0889588,-0.626155],"front_3":[-1.29502,0.11069,-0.626155],"front_4":[-1.28644,0.10949,-0.646981],"back_1":[-1.49889,0.113569,-0.738647],"back_2":[-1.50887,0.114771,-0.714507],"back_3":[-1.50533,0.1401,-0.714507],"back_4":[-1.49538,0.138709,-0.738647],"geometricVertices":[[-1.28945,0.0879225,-0.646981],[-1.29806,0.0889588,-0.626155],[-1.29502,0.11069,-0.626155],[-1.28644,0.10949,-0.646981],[-1.28945,0.0879225,-0.646981],[-1.29806,0.0889588,-0.626155],[-1.29502,0.11069,-0.626155],[-1.28644,0.10949,-0.646981]],"scale":0.0,"deltaPhi":0.0,"deltaEta":0.0},{"energy":0.137673,"eta":-0.473662,"phi":3.08228,"time":24.0691,"detid":838874811,"front_1":[-1.28951,0.0654441,-0.646981],"front_2":[-1.29813,0.0663436,-0.626155],"front_3":[-1.29585,0.0881682,-0.626155],"front_4":[-1.28725,0.0871042,-0.646981],"back_1":[-1.49934,0.087347,-0.738647],"back_2":[-1.50933,0.0883897,-0.714507],"back_3":[-1.50668,0.113827,-0.714507],"back_4":[-1.49671,0.112594,-0.738647],"geometricVertices":[[-1.28951,0.0654441,-0.646981],[-1.29813,0.0663436,-0.626155],[-1.29585,0.0881682,-0.626155],[-1.28725,0.0871042,-0.646981],[-1.310437227537882,0.06762856824591086,-0.6561232353309226],[-1.3191965461145263,0.06854263021920198,-0.6349678384579102],[-1.3168764218223596,0.09072719422404574,-0.6349664899248167],[-1.3081373938619774,0.0896460480476608,-0.6561219521901652]],"scale":0.022941255867664483,"deltaPhi":0.0,"deltaEta":0.0},{"energy":0.389229,"eta":-0.473258,"phi":3.09945,"time":3.19291,"detid":838874812,"front_1":[-1.29181,0.0433623,-0.646981],"front_2":[-1.30045,0.0440974,-0.626155],"front_3":[-1.29817,0.065922,-0.626155],"front_4":[-1.28955,0.0650224,-0.646981],"back_1":[-1.50202,0.0616788,-0.738647],"back_2":[-1.51203,0.0625309,-0.714507],"back_3":[-1.50938,0.087968,-0.714507],"back_4":[-1.49939,0.0869253,-0.738647],"geometricVertices":[[-1.29181,0.0433623,-0.646981],[-1.30045,0.0440974,-0.626155],[-1.29817,0.065922,-0.626155],[-1.28955,0.0650224,-0.646981],[-1.3510739812417092,0.048526225181550676,-0.672824166854586],[-1.3601083538391847,0.04929501917711791,-0.6510672548369394],[-1.3577297675358355,0.07213882039247682,-0.6510696564145928],[-1.348715914967173,0.07119808203838397,-0.6728268957366608]],"scale":0.06485950099231642,"deltaPhi":0.0,"deltaEta":0.0},{"energy":0.10271,"eta":-0.473631,"phi":3.1168,"time":-11.3001,"detid":838874813,"front_1":[-1.29109,0.0208956,-0.646981],"front_2":[-1.29973,0.0214936,-0.626155],"front_3":[-1.29822,0.0433844,-0.626155],"front_4":[-1.28958,0.0426215,-0.646981],"back_1":[-1.50156,0.0354566,-0.738647],"back_2":[-1.51158,0.0361497,-0.714507],"back_3":[-1.50981,0.061664,-0.714507],"back_4":[-1.49981,0.0607797,-0.738647],"geometricVertices":[[-1.29109,0.0208956,-0.646981],[-1.29973,0.0214936,-0.626155],[-1.29822,0.0433844,-0.626155],[-1.28958,0.0426215,-0.646981],[-1.3067500457417847,0.02197901296168635,-0.6538014197888841],[-1.315494363455831,0.022584202252749607,-0.632729524616708],[-1.3139636400362646,0.04474451835345198,-0.6327289500188291],[-1.3052197162704882,0.04397234952662693,-0.6538003418239575]],"scale":0.017115167027433258,"deltaPhi":0.0,"deltaEta":0.0},{"energy":0.0898772,"eta":-0.47323,"phi":3.13398,"time":-19.2458,"detid":838874814,"front_1":[-1.29262,-0.00125328,-0.646981],"front_2":[-1.30127,-0.000820097,-0.626155],"front_3":[-1.29976,0.0210707,-0.626155],"front_4":[-1.29112,0.0204726,-0.646981],"back_1":[-1.50334,0.00971034,-0.738647],"back_2":[-1.51337,0.0102124,-0.714507],"back_3":[-1.51161,0.0357268,-0.714507],"back_4":[-1.50159,0.0350335,-0.738647],"geometricVertices":[[-1.29262,-0.00125328,-0.646981],[-1.30127,-0.000820097,-0.626155],[-1.29976,0.0210707,-0.626155],[-1.29112,0.0204726,-0.646981],[-1.3063379776686916,-0.0005395428401289884,-0.652948502567285],[-1.3150793262528393,-0.0001017973750284247,-0.6319073884634175],[-1.3135547312549158,0.022025040149847405,-0.6319080899024514],[-1.3048234475890959,0.02142064261890087,-0.6529492625870769]],"scale":0.01497676263224637,"deltaPhi":0.0,"deltaEta":0.0},{"energy":0.0,"eta":-0.490538,"phi":3.06492,"time":-25.9239,"detid":838875322,"front_1":[-1.28945,0.0879225,-0.671994],"front_2":[-1.29838,0.0890036,-0.651305],"front_3":[-1.29534,0.110735,-0.651305],"front_4":[-1.28644,0.10949,-0.671994],"back_1":[-1.49746,0.113368,-0.766932],"back_2":[-1.5078,0.114621,-0.742952],"back_3":[-1.50426,0.13995,-0.742952],"back_4":[-1.49394,0.138507,-0.766932],"geometricVertices":[[-1.28945,0.0879225,-0.671994],[-1.29838,0.0890036,-0.651305],[-1.29534,0.110735,-0.651305],[-1.28644,0.10949,-0.671994],[-1.28945,0.0879225,-0.671994],[-1.29838,0.0890036,-0.651305],[-1.29534,0.110735,-0.651305],[-1.28644,0.10949,-0.671994]],"scale":0.0,"deltaPhi":0.0,"deltaEta":0.0},{"energy":0.113577,"eta":-0.49092,"phi":3.08227,"time":-6.89623,"detid":838875323,"front_1":[-1.28951,0.0654441,-0.671994],"front_2":[-1.29845,0.0663772,-0.651305],"front_3":[-1.29617,0.0882018,-0.651305],"front_4":[-1.28725,0.0871042,-0.671994],"back_1":[-1.4979,0.0871962,-0.766932],"back_2":[-1.50826,0.0882778,-0.742952],"back_3":[-1.50561,0.113715,-0.742952],"back_4":[-1.49526,0.112443,-0.766932],"geometricVertices":[[-1.28951,0.0654441,-0.671994],[-1.29845,0.0663772,-0.651305],[-1.29617,0.0882018,-0.651305],[-1.28725,0.0871042,-0.671994],[-1.3066557083631343,0.0672337979839999,-0.6798052158000828],[-1.315714780995424,0.06817934986258224,-0.6588464202558868],[-1.3134017019664008,0.09030090169313014,-0.6588452682874081],[-1.3043627179426294,0.08918879082450218,-0.67980442842189]],"scale":0.018925998690242307,"deltaPhi":0.0,"deltaEta":0.0},{"energy":0.0439436,"eta":-0.490503,"phi":3.09945,"time":0.872328,"detid":838875324,"front_1":[-1.29181,0.0433623,-0.671994],"front_2":[-1.30077,0.044131,-0.651305],"front_3":[-1.29849,0.0659555,-0.651305],"front_4":[-1.28955,0.0650224,-0.671994],"back_1":[-1.50058,0.0615279,-0.766932],"back_2":[-1.51096,0.062419,-0.742952],"back_3":[-1.50831,0.0878561,-0.742952],"back_4":[-1.49794,0.0867745,-0.766932],"geometricVertices":[[-1.29181,0.0433623,-0.671994],[-1.30077,0.044131,-0.651305],[-1.29849,0.0659555,-0.651305],[-1.28955,0.0650224,-0.671994],[-1.298454906568355,0.04394048994471482,-0.6750157662489175],[-1.3074610306082137,0.04471316645779063,-0.6542224217714971],[-1.3051698973302042,0.06665273457949608,-0.6542227035107293],[-1.2961837740037705,0.06571484452952356,-0.6750162046948988]],"scale":0.007322578656281922,"deltaPhi":0.0,"deltaEta":0.0},{"energy":0.0974814,"eta":-0.490888,"phi":3.1168,"time":18.5373,"detid":838875325,"front_1":[-1.29109,0.0208956,-0.671994],"front_2":[-1.30005,0.0215159,-0.651305],"front_3":[-1.29854,0.0434067,-0.651305],"front_4":[-1.28958,0.0426215,-0.671994],"back_1":[-1.50011,0.0353563,-0.766932],"back_2":[-1.5105,0.0360753,-0.742952],"back_3":[-1.50874,0.0615896,-0.742952],"back_4":[-1.49836,0.0606795,-0.766932],"geometricVertices":[[-1.29109,0.0208956,-0.671994],[-1.30005,0.0215159,-0.651305],[-1.29854,0.0434067,-0.651305],[-1.28958,0.0426215,-0.671994],[-1.3058505374908496,0.021916783161869326,-0.678698314937835],[-1.3149131144718547,0.02254416338247338,-0.6577776056165459],[-1.3133835671428873,0.04469071092769935,-0.6577767811510189],[-1.3043212620293847,0.04389651537372656,-0.6786972567034474]],"scale":0.0162438948794473,"deltaPhi":0.0,"deltaEta":0.0},{"energy":0.0,"eta":-0.490475,"phi":3.13397,"time":24.0691,"detid":838875326,"front_1":[-1.29262,-0.00125322,-0.671994],"front_2":[-1.3016,-0.000797846,-0.651305],"front_3":[-1.30008,0.0210929,-0.651305],"front_4":[-1.29112,0.0204726,-0.671994],"back_1":[-1.50189,0.00961014,-0.766932],"back_2":[-1.5123,0.010138,-0.742952],"back_3":[-1.51053,0.0356523,-0.742952],"back_4":[-1.50014,0.0349333,-0.766932],"geometricVertices":[[-1.29262,-0.00125322,-0.671994],[-1.3016,-0.000797846,-0.651305],[-1.30008,0.0210929,-0.651305],[-1.29112,0.0204726,-0.671994],[-1.29262,-0.00125322,-0.671994],[-1.3016,-0.000797846,-0.651305],[-1.30008,0.0210929,-0.651305],[-1.29112,0.0204726,-0.671994]],"scale":0.0,"deltaPhi":0.0,"deltaEta":0.0},{"energy":0.0104042,"eta":-0.507766,"phi":3.06491,"time":24.0691,"detid":838875834,"front_1":[-1.28945,0.0879225,-0.697179],"front_2":[-1.2987,0.089048,-0.676633],"front_3":[-1.29566,0.11078,-0.676632],"front_4":[-1.28644,0.10949,-0.697179],"back_1":[-1.49597,0.11316,-0.795368],"back_2":[-1.50668,0.114465,-0.771552],"back_3":[-1.50314,0.139794,-0.771552],"back_4":[-1.49245,0.138299,-0.795368],"geometricVertices":[[-1.28945,0.0879225,-0.697179],[-1.2987,0.089048,-0.676633],[-1.29566,0.11078,-0.676632],[-1.28644,0.10949,-0.697179],[-1.2910063036627772,0.0881126860046937,-0.697918937537984],[-1.30026756073636,0.08923956982034842,-0.6773484115661822],[-1.2972239658909004,0.11099870496606218,-0.6773474985654726],[-1.287992715084804,0.1097071359102865,-0.697919058936274]],"scale":0.0017337125965029804,"deltaPhi":0.0,"deltaEta":0.0},{"energy":1.59213,"eta":-0.508159,"phi":3.08227,"time":-0.629823,"detid":838875835,"front_1":[-1.28951,0.0654441,-0.697179],"front_2":[-1.29877,0.0664105,-0.676632],"front_3":[-1.29649,0.088235,-0.676632],"front_4":[-1.28725,0.0871042,-0.697179],"back_1":[-1.4964,0.0870402,-0.795368],"back_2":[-1.50714,0.0881603,-0.771552],"back_3":[-1.50448,0.113597,-0.771552],"back_4":[-1.49377,0.112287,-0.795368],"geometricVertices":[[-1.28951,0.0654441,-0.697179],[-1.29877,0.0664105,-0.676632],[-1.29649,0.088235,-0.676632],[-1.28725,0.0871042,-0.697179],[-1.5281337605036667,0.09035271131138883,-0.8104286902706488],[-1.539123543601351,0.09149876367817185,-0.7861216499430833],[-1.5363780990945306,0.11748660810248321,-0.7861092747057687],[-1.5254136560730303,0.11614558929961216,-0.8104128331694497]],"scale":0.2653059184050951,"deltaPhi":0.0,"deltaEta":0.0},{"energy":0.241982,"eta":-0.50773,"phi":3.09944,"time":15.5041,"detid":838875836,"front_1":[-1.29181,0.0433623,-0.697179],"front_2":[-1.30109,0.0441643,-0.676633],"front_3":[-1.29881,0.0659888,-0.676632],"front_4":[-1.28955,0.0650224,-0.697179],"back_1":[-1.49908,0.0613719,-0.795368],"back_2":[-1.50984,0.0623015,-0.771552],"back_3":[-1.50718,0.0877386,-0.771552],"back_4":[-1.49645,0.0866184,-0.795368],"geometricVertices":[[-1.29181,0.0433623,-0.697179],[-1.30109,0.0441643,-0.676633],[-1.29881,0.0659888,-0.676632],[-1.28955,0.0650224,-0.697179],[-1.3281388996369012,0.046518902262270165,-0.7143889113545023],[-1.3376821557529015,0.047343601783576154,-0.6932715189552558],[-1.3353404536612854,0.06980187319212086,-0.6932729303715948],[-1.325817886601929,0.0688080030887156,-0.7143907328059778]],"scale":0.04032287360171702,"deltaPhi":0.0,"deltaEta":0.0},{"energy":0.0759876,"eta":-0.508126,"phi":3.11679,"time":-0.19732,"detid":838875837,"front_1":[-1.29109,0.0208956,-0.697179],"front_2":[-1.30037,0.0215381,-0.676633],"front_3":[-1.29886,0.0434288,-0.676632],"front_4":[-1.28958,0.0426215,-0.697179],"back_1":[-1.49861,0.0352525,-0.795368],"back_2":[-1.50937,0.0359972,-0.771552],"back_3":[-1.50761,0.0615115,-0.771552],"back_4":[-1.49686,0.0605757,-0.795368],"geometricVertices":[[-1.29109,0.0208956,-0.697179],[-1.30037,0.0215381,-0.676633],[-1.29886,0.0434288,-0.676632],[-1.28958,0.0426215,-0.697179],[-1.302513390775917,0.021685906857318627,-0.7025840275486531],[-1.311876172890203,0.02233412346620447,-0.6818586192562928],[-1.3103509248280147,0.04442418656952116,-0.6818569992080248],[-1.3009883813170082,0.0436096723265237,-0.7025831757677332]],"scale":0.012662257482365763,"deltaPhi":0.0,"deltaEta":0.0},{"energy":0.0679104,"eta":-0.507701,"phi":3.13396,"time":-13.515,"detid":838875838,"front_1":[-1.29262,-0.00125327,-0.697179],"front_2":[-1.30192,-0.000775659,-0.676632],"front_3":[-1.3004,0.0211151,-0.676633],"front_4":[-1.29112,0.0204726,-0.697179],"back_1":[-1.50039,0.00950636,-0.795368],"back_2":[-1.51117,0.01006,-0.771552],"back_3":[-1.5094,0.0355743,-0.771552],"back_4":[-1.49864,0.0348295,-0.795368],"geometricVertices":[[-1.29262,-0.00125327,-0.697179],[-1.30192,-0.000775659,-0.676632],[-1.3004,0.0211151,-0.676633],[-1.29112,0.0204726,-0.697179],[-1.3028401247181962,-0.0007240080251160179,-0.7020088783556575],[-1.3122141353994892,-0.0002425945274136509,-0.6813016264378472],[-1.3106831091136584,0.02182651402534071,-0.6813031551864084],[-1.301329126712106,0.021178900170070524,-0.7020094931704653]],"scale":0.011316306483300589,"deltaPhi":0.0,"deltaEta":0.0},{"energy":0.0,"eta":-0.524977,"phi":3.0649,"time":24.0691,"detid":838876346,"front_1":[-1.28945,0.0879225,-0.722546],"front_2":[-1.29901,0.0890922,-0.702147],"front_3":[-1.29597,0.110824,-0.702147],"front_4":[-1.28644,0.10949,-0.722546],"back_1":[-1.49443,0.112945,-0.823961],"back_2":[-1.50551,0.114301,-0.800316],"back_3":[-1.50197,0.13963,-0.800317],"back_4":[-1.49091,0.138084,-0.823961],"geometricVertices":[[-1.28945,0.0879225,-0.722546],[-1.29901,0.0890922,-0.702147],[-1.29597,0.110824,-0.702147],[-1.28644,0.10949,-0.722546],[-1.28945,0.0879225,-0.722546],[-1.29901,0.0890922,-0.702147],[-1.29597,0.110824,-0.702147],[-1.28644,0.10949,-0.722546]],"scale":0.0,"deltaPhi":0.0,"deltaEta":0.0},{"energy":0.0,"eta":-0.525381,"phi":3.08226,"time":24.0691,"detid":838876347,"front_1":[-1.28951,0.0654441,-0.722546],"front_2":[-1.29909,0.0664437,-0.702147],"front_3":[-1.29681,0.0882682,-0.702147],"front_4":[-1.28725,0.0871042,-0.722546],"back_1":[-1.49486,0.0868788,-0.823961],"back_2":[-1.50596,0.0880374,-0.800317],"back_3":[-1.5033,0.113475,-0.800317],"back_4":[-1.49222,0.112125,-0.823961],"geometricVertices":[[-1.28951,0.0654441,-0.722546],[-1.29909,0.0664437,-0.702147],[-1.29681,0.0882682,-0.702147],[-1.28725,0.0871042,-0.722546],[-1.28951,0.0654441,-0.722546],[-1.29909,0.0664437,-0.702147],[-1.29681,0.0882682,-0.702147],[-1.28725,0.0871042,-0.722546]],"scale":0.0,"deltaPhi":0.0,"deltaEta":0.0},{"energy":0.0165972,"eta":-0.52494,"phi":3.09943,"time":24.0691,"detid":838876348,"front_1":[-1.29181,0.0433623,-0.722546],"front_2":[-1.30141,0.0441974,-0.702147],"front_3":[-1.29913,0.0660219,-0.702147],"front_4":[-1.28955,0.0650224,-0.722546],"back_1":[-1.49754,0.0612106,-0.823961],"back_2":[-1.50866,0.0621785,-0.800317],"back_3":[-1.506,0.0876156,-0.800316],"back_4":[-1.4949,0.0864571,-0.823961],"geometricVertices":[[-1.29181,0.0433623,-0.722546],[-1.30141,0.0441974,-0.702147],[-1.29913,0.0660219,-0.702147],[-1.28955,0.0650224,-0.722546],[-1.2942831843845957,0.043576863441654505,-0.7237651610089135],[-1.3039018140888734,0.04441359087244121,-0.7033273203334364],[-1.3016175883370302,0.06628156179858526,-0.7033274711145063],[-1.2920189736940082,0.06528011468438744,-0.7237653375562594]],"scale":0.002765688347655684,"deltaPhi":0.0,"deltaEta":0.0},{"energy":0.0,"eta":-0.525347,"phi":3.11679,"time":24.0691,"detid":838876349,"front_1":[-1.29109,0.0208956,-0.722546],"front_2":[-1.30069,0.0215601,-0.702147],"front_3":[-1.29918,0.0434509,-0.702147],"front_4":[-1.28958,0.0426214,-0.722546],"back_1":[-1.49706,0.0351452,-0.823961],"back_2":[-1.50819,0.0359155,-0.800316],"back_3":[-1.50643,0.0614298,-0.800317],"back_4":[-1.49531,0.0604684,-0.823961],"geometricVertices":[[-1.29109,0.0208956,-0.722546],[-1.30069,0.0215601,-0.702147],[-1.29918,0.0434509,-0.702147],[-1.28958,0.0426214,-0.722546],[-1.29109,0.0208956,-0.722546],[-1.30069,0.0215601,-0.702147],[-1.29918,0.0434509,-0.702147],[-1.28958,0.0426214,-0.722546]],"scale":0.0,"deltaPhi":0.0,"deltaEta":0.0},{"energy":0.023207,"eta":-0.52491,"phi":3.13396,"time":23.1531,"detid":838876350,"front_1":[-1.29262,-0.00125331,-0.722546],"front_2":[-1.30224,-0.000753629,-0.702147],"front_3":[-1.30072,0.0211371,-0.702147],"front_4":[-1.29112,0.0204726,-0.722546],"back_1":[-1.49884,0.00939908,-0.823961],"back_2":[-1.50999,0.00997826,-0.800317],"back_3":[-1.50822,0.0354926,-0.800317],"back_4":[-1.49709,0.0347222,-0.823961],"geometricVertices":[[-1.29262,-0.00125331,-0.722546],[-1.30224,-0.000753629,-0.702147],[-1.30072,0.0211371,-0.702147],[-1.29112,0.0204726,-0.722546],[-1.2960864671660037,-0.0010742480265034222,-0.7242507413812446],[-1.3057326008740784,-0.00057320924114603,-0.703797390506899],[-1.3042088234789038,0.021378467737115187,-0.7037975918116818],[-1.2945827054453931,0.02071215997239731,-0.7242509583567731]],"scale":0.0038671179165187773,"deltaPhi":0.0,"deltaEta":0.0},{"energy":0.389256,"eta":-0.729956,"phi":-2.17199,"time":-2.50471,"detid":838882550,"front_1":[-0.722192,-1.07274,-1.04402],"front_2":[-0.730083,-1.08324,-1.02541],"front_3":[-0.747442,-1.0697,-1.02541],"front_4":[-0.739363,-1.05934,-1.04402],"back_1":[-0.834196,-1.22142,-1.17917],"back_2":[-0.843156,-1.23335,-1.15804],"back_3":[-0.863027,-1.21785,-1.15804],"back_4":[-0.853852,-1.20609,-1.17917],"geometricVertices":[[-0.722192,-1.07274,-1.04402],[-0.730083,-1.08324,-1.02541],[-0.747442,-1.0697,-1.02541],[-0.739363,-1.05934,-1.04402],[-0.7537742521630746,-1.1146639424628222,-1.0821288298617864],[-0.7619687702680726,-1.125569937075521,-1.0628107031798437],[-0.7800392786147413,-1.1114812590454983,-1.0628143090597666],[-0.7716481990380102,-1.1007226040827327,-1.082131474901406]],"scale":0.0648640001599704,"deltaPhi":0.0,"deltaEta":0.0},{"energy":2.71458,"eta":-1.0764,"phi":-1.26782,"time":-0.689119,"detid":838892842,"front_1":[0.397381,-1.23331,-1.69837],"front_2":[0.401987,-1.25042,-1.68305],"front_3":[0.380555,-1.25578,-1.68305],"front_4":[0.376255,-1.2386,-1.69837],"back_1":[0.435893,-1.37692,-1.87389],"back_2":[0.440972,-1.39579,-1.85699],"back_3":[0.417083,-1.40177,-1.85699],"back_4":[0.412341,-1.38282,-1.87389],"geometricVertices":[[0.397381,-1.23331,-1.69837],[0.401987,-1.25042,-1.68305],[0.380555,-1.25578,-1.68305],[0.376255,-1.2386,-1.69837],[0.4731132219071744,-1.5157130013525477,-2.0435226690160797],[0.47865434509222815,-1.5363025690921435,-2.025117923697375],[0.45239376539842446,-1.5428951270399691,-2.0251337399639167],[0.44722021545770824,-1.52221700862691,-2.0435402770364393]],"scale":0.4523463159315527,"deltaPhi":0.0,"deltaEta":0.0},{"energy":0.292228,"eta":-1.13037,"phi":2.87098,"time":24.0691,"detid":838894255,"front_1":[-1.24714,0.334206,-1.81],"front_2":[-1.26444,0.339812,-1.79524],"front_3":[-1.25763,0.360829,-1.79524],"front_4":[-1.24043,0.354924,-1.81],"back_1":[-1.38327,0.378316,-1.99008],"back_2":[-1.40235,0.384496,-1.9738],"back_3":[-1.39476,0.407922,-1.9738],"back_4":[-1.37579,0.401411,-1.99008],"geometricVertices":[[-1.24714,0.334206,-1.81],[-1.26444,0.339812,-1.79524],[-1.25763,0.360829,-1.79524],[-1.24043,0.354924,-1.81],[-1.2759598774984813,0.3435444617384707,-1.848124465877665],[-1.2936384775192078,0.34927255231287274,-1.833044946311578],[-1.286661535030179,0.37079897067874446,-1.833042602603287],[-1.269085155409277,0.364765106748752,-1.8481221955238079]],"scale":0.04869565796994223,"deltaPhi":0.0,"deltaEta":0.0},{"energy":2.00219,"eta":-1.206,"phi":1.21013,"time":-1.98822,"detid":838896208,"front_1":[0.444243,1.20996,-1.98009],"front_2":[0.451632,1.22741,-1.96592],"front_3":[0.471837,1.21843,-1.96592],"front_4":[0.464145,1.20112,-1.98009],"back_1":[0.497299,1.33518,-2.1656],"back_2":[0.505391,1.35429,-2.15008],"back_3":[0.527766,1.34435,-2.15008],"back_4":[0.519344,1.32539,-2.1656],"geometricVertices":[[0.444243,1.20996,-1.98009],[0.451632,1.22741,-1.96592],[0.471837,1.21843,-1.96592],[0.464145,1.20112,-1.98009],[0.5211992050808458,1.3915880156857567,-2.2491669301219033],[0.5296119230572889,1.4114553252015254,-2.233052622076867],[0.5529681858726154,1.4010908543882374,-2.2330644007634834],[0.5442133674108913,1.3813786282025302,-2.2491797088424508]],"scale":0.3336366105603797,"deltaPhi":0.0,"deltaEta":0.0},{"energy":0.885882,"eta":-1.20647,"phi":1.43877,"time":-0.352601,"detid":838896221,"front_1":[0.158237,1.27782,-1.97938],"front_2":[0.161512,1.29648,-1.9652],"front_3":[0.183288,1.29266,-1.9652],"front_4":[0.179687,1.27405,-1.97938],"back_1":[0.181743,1.41175,-2.16489],"back_2":[0.185329,1.43218,-2.14937],"back_3":[0.209444,1.42795,-2.14937],"back_4":[0.205501,1.40758,-2.16489],"geometricVertices":[[0.158237,1.27782,-1.97938],[0.161512,1.29648,-1.9652],[0.183288,1.29266,-1.9652],[0.179687,1.27405,-1.97938],[0.17332319949369238,1.363776551441769,-2.098440702291963],[0.17679829240234077,1.3835753469789498,-2.0834044956014233],[0.20007459861666083,1.379487455530205,-2.08339803743808],[0.19625340673514932,1.3597442857110285,-2.0984329988935286]],"scale":0.1476196903572839,"deltaPhi":0.0,"deltaEta":0.0},{"energy":0.158135,"eta":-1.20649,"phi":1.47339,"time":20.8029,"detid":838896223,"front_1":[0.113906,1.28249,-1.97938],"front_2":[0.116528,1.30126,-1.9652],"front_3":[0.138424,1.2982,-1.9652],"front_4":[0.135475,1.27948,-1.97938],"back_1":[0.13272,1.41716,-2.16489],"back_2":[0.135591,1.43771,-2.14937],"back_3":[0.159839,1.43432,-2.14937],"back_4":[0.15661,1.41383,-2.16489],"geometricVertices":[[0.113906,1.28249,-1.97938],[0.116528,1.30126,-1.9652],[0.138424,1.2982,-1.9652],[0.135475,1.27948,-1.97938],[0.11606142822051561,1.2979184850885956,-2.00063297593217],[0.1187120240080419,1.316892905413488,-1.9863001259802275],[0.1408773678198032,1.3137943230273925,-1.9862990778133625],[0.13789618204259016,1.294870859116252,-2.00063164327991]],"scale":0.02635095840602822,"deltaPhi":0.0,"deltaEta":0.0},{"energy":0.72127,"eta":-1.22309,"phi":1.21013,"time":-2.50472,"detid":838896720,"front_1":[0.444243,1.20996,-2.02075],"front_2":[0.451687,1.22753,-2.00676],"front_3":[0.471892,1.21856,-2.00676],"front_4":[0.464145,1.20112,-2.02075],"back_1":[0.496563,1.33352,-2.20758],"back_2":[0.504715,1.35277,-2.19226],"back_3":[0.527091,1.34283,-2.19226],"back_4":[0.518608,1.32373,-2.20758],"geometricVertices":[[0.444243,1.20996,-2.02075],[0.451687,1.22753,-2.00676],[0.471892,1.21856,-2.00676],[0.464145,1.20112,-2.02075],[0.4715809236484169,1.2745218089831498,-2.1183712590832138],[0.4793955517172916,1.2929712577708683,-2.103688723383073],[0.5007368830911367,1.2834987420376378,-2.103695194721025],[0.49260402237961337,1.2651884636168482,-2.118375895583849]],"scale":0.12018943162181663,"deltaPhi":0.0,"deltaEta":0.0},{"energy":0.264652,"eta":-1.21853,"phi":-1.2334,"time":6.16258,"detid":838896940,"front_1":[0.43958,-1.2188,-2.02021],"front_2":[0.445174,-1.23705,-2.00622],"front_3":[0.423928,-1.24317,-2.00622],"front_4":[0.418651,-1.22483,-2.02021],"back_1":[0.478926,-1.34709,-2.20704],"back_2":[0.485052,-1.36707,-2.19172],"back_3":[0.461522,-1.37384,-2.19172],"back_4":[0.455745,-1.35376,-2.20704],"geometricVertices":[[0.43958,-1.2188,-2.02021],[0.445174,-1.23705,-2.00622],[0.423928,-1.24317,-2.00622],[0.418651,-1.22483,-2.02021],[0.44712340770921866,-1.2433957346367017,-2.056029012410749],[0.45281984884178805,-1.2619788646975596,-2.0417861006106546],[0.4311364460280758,-1.2682252652680923,-2.041788621008886],[0.4257631602522378,-1.2495501925195724,-2.056031558740648]],"scale":0.044100508072673225,"deltaPhi":0.0,"deltaEta":0.0},{"energy":2.10439,"eta":-1.23822,"phi":-0.0455114,"time":2.31517,"detid":838897160,"front_1":[1.29058,-0.0474147,-2.06134],"front_2":[1.30986,-0.0490818,-2.04744],"front_3":[1.30757,-0.0710841,-2.04744],"front_4":[1.28832,-0.0690749,-2.06134],"back_1":[1.42256,-0.0589851,-2.24937],"back_2":[1.44353,-0.0607983,-2.23425],"back_3":[1.44101,-0.0850128,-2.23425],"back_4":[1.42007,-0.0828274,-2.24937],"geometricVertices":[[1.29058,-0.0474147,-2.06134],[1.30986,-0.0490818,-2.04744],[1.30757,-0.0710841,-2.04744],[1.28832,-0.0690749,-2.06134],[1.491786777118135,-0.06505406122115222,-2.3479963896160245],[1.5136527653505474,-0.06694473061442126,-2.332249803958523],[1.5110211516881662,-0.09232068615496823,-2.332262464379993],[1.4891863888383303,-0.09004199686906367,-2.348011021580806]],"scale":0.35066679330990436,"deltaPhi":0.0,"deltaEta":0.0},{"energy":0.302957,"eta":-1.25541,"phi":-0.0109569,"time":-4.84526,"detid":838897674,"front_1":[1.29138,-0.00279906,-2.10337],"front_2":[1.31084,-0.00380036,-2.08964],"front_3":[1.30931,-0.0258694,-2.08964],"front_4":[1.28988,-0.0245249,-2.10337],"back_1":[1.42198,-0.00963507,-2.29259],"back_2":[1.44314,-0.0107242,-2.27767],"back_3":[1.44146,-0.0350121,-2.27767],"back_4":[1.42033,-0.0335497,-2.29259],"geometricVertices":[[1.29138,-0.00279906,-2.10337],[1.31084,-0.00380036,-2.08964],[1.30931,-0.0258694,-2.08964],[1.28988,-0.0245249,-2.10337],[1.320043867258978,-0.004299415920528691,-2.144899685779049],[1.3398771968929122,-0.00532000403125488,-2.1309088142991253],[1.3383153763592712,-0.027876115508436695,-2.130910381512174],[1.3185121473585601,-0.02650573099640884,-2.1449014290777058]],"scale":0.05048349388696424,"deltaPhi":0.0,"deltaEta":0.0},{"energy":0.524612,"eta":-1.30739,"phi":-0.166389,"time":7.09426,"detid":838899201,"front_1":[1.27423,-0.202451,-2.23282],"front_2":[1.29364,-0.206564,-2.21963],"front_3":[1.28906,-0.228206,-2.21963],"front_4":[1.26971,-0.223755,-2.23282],"back_1":[1.39708,-0.228481,-2.42553],"back_2":[1.41819,-0.232956,-2.41118],"back_3":[1.41315,-0.256773,-2.41118],"back_4":[1.39211,-0.251932,-2.42553],"geometricVertices":[[1.27423,-0.202451,-2.23282],[1.29364,-0.206564,-2.21963],[1.28906,-0.228206,-2.21963],[1.26971,-0.223755,-2.23282],[1.3209202214378264,-0.21234393011010677,-2.3060611279876557],[1.3409790884312383,-0.21659509772683452,-2.292434515367352],[1.336221950472473,-0.23906324425132677,-2.2924309639213654],[1.3162265486508964,-0.23446330711876073,-2.3060569615238093]],"scale":0.08741916078858744,"deltaPhi":0.0,"deltaEta":0.0},{"energy":1.29309,"eta":-1.443,"phi":3.13374,"time":-2.75595,"detid":838903486,"front_1":[-1.29262,-0.00126474,-2.609],"front_2":[-1.31363,-0.000179985,-2.59695],"front_3":[-1.3121,0.021913,-2.59695],"front_4":[-1.29112,0.0204611,-2.609],"back_1":[-1.40523,0.00460581,-2.80948],"back_2":[-1.42779,0.00577082,-2.79654],"back_3":[-1.42613,0.0298019,-2.79654],"back_4":[-1.40359,0.0282426,-2.80948],"geometricVertices":[[-1.29262,-0.00126474,-2.609],[-1.31363,-0.000179985,-2.59695],[-1.3121,0.021913,-2.59695],[-1.29112,0.0204611,-2.609],[-1.3981108177623462,0.0042346749739343,-2.7968056934996466],[-1.4205764858998433,0.00539480199216203,-2.783928355998158],[-1.4189275697647763,0.02930361663700206,-2.7839333784912017],[-1.3964850684093264,0.027751028690559024,-2.7968153188823845]],"scale":0.2154751370996366,"deltaPhi":0.0,"deltaEta":0.0},{"energy":1.59614,"eta":-1.47977,"phi":0.791197,"time":-1.73263,"detid":838904376,"front_1":[0.898367,0.925045,-2.71138],"front_2":[0.913879,0.93953,-2.69966],"front_3":[0.928711,0.923085,-2.69966],"front_4":[0.912953,0.908873,-2.71138],"back_1":[0.978489,0.999885,-2.91359],"back_2":[0.995148,1.01544,-2.901],"back_3":[1.01128,0.997554,-2.901],"back_4":[0.994357,0.982291,-2.91359],"geometricVertices":[[0.898367,0.925045,-2.71138],[0.913879,0.93953,-2.69966],[0.928711,0.923085,-2.69966],[0.912953,0.908873,-2.71138],[0.9910125522043839,1.0115829437230235,-2.945196643509254],[1.0078549831322947,1.027309065567098,-2.932480933490706],[1.0241935923516932,1.0092007718979066,-2.932489090143878],[1.0070842693422672,0.9937696823813396,-2.9452049222851437]],"scale":0.26597412811963117,"deltaPhi":0.0,"deltaEta":0.0},{"energy":0.346716,"eta":-1.47733,"phi":-2.66235,"time":5.05627,"detid":838904538,"front_1":[-1.14145,-0.606014,-2.70997],"front_2":[-1.16068,-0.614998,-2.69825],"front_3":[-1.16971,-0.594774,-2.69825],"front_4":[-1.15033,-0.586127,-2.70997],"back_1":[-1.24078,-0.652435,-2.91217],"back_2":[-1.26143,-0.662083,-2.89958],"back_3":[-1.27125,-0.640086,-2.89958],"back_4":[-1.25044,-0.630798,-2.91217],"geometricVertices":[[-1.14145,-0.606014,-2.70997],[-1.16068,-0.614998,-2.69825],[-1.16971,-0.594774,-2.69825],[-1.15033,-0.586127,-2.70997],[-1.1663999370734885,-0.6176741331811982,-2.7607590594609825],[-1.1859877806261852,-0.6268254625387983,-2.7488228582974674],[-1.195217190717814,-0.6061565273370652,-2.7488247755290276],[-1.1754767737242633,-0.5973479722209225,-2.76076090647334]],"scale":0.057775311567360044,"deltaPhi":0.0,"deltaEta":0.0},{"energy":1.2781,"eta":-1.4787,"phi":-0.273848,"time":-1.07218,"detid":838904675,"front_1":[1.24547,-0.338027,-2.71076],"front_2":[1.26566,-0.344568,-2.69905],"front_3":[1.25883,-0.365635,-2.69905],"front_4":[1.23876,-0.358744,-2.71076],"back_1":[1.34976,-0.371816,-2.91297],"back_2":[1.37144,-0.378841,-2.90038],"back_3":[1.36401,-0.401757,-2.90038],"back_4":[1.34245,-0.394356,-2.91297],"geometricVertices":[[1.24547,-0.338027,-2.71076],[1.26566,-0.344568,-2.69905],[1.25883,-0.365635,-2.69905],[1.23876,-0.358744,-2.71076],[1.342034925423505,-0.3693131469473086,-2.8979916959429186],[1.363613044735765,-0.37630504577641216,-2.8854830355138175],[1.3562241407413973,-0.39908309994163105,-2.885476719485316],[1.3347677995490257,-0.391717572741247,-2.8979886348424007]],"scale":0.21297726587248028,"deltaPhi":0.0,"deltaEta":0.0},{"energy":1.03444,"eta":0.011743,"phi":-1.50943,"time":-2.74196,"detid":838927132,"front_1":[0.068374,-1.29025,0.0269411],"front_2":[0.068374,-1.29025,0.00339315],"front_3":[0.0900453,-1.288,0.00339316],"front_4":[0.0900349,-1.288,0.0269411],"back_1":[0.0921717,-1.51902,0.0288412],"back_2":[0.0921718,-1.51902,0.00339317],"back_3":[0.117836,-1.51635,0.00339317],"back_4":[0.117825,-1.51635,0.0288412],"geometricVertices":[[0.068374,-1.29025,0.0269411],[0.068374,-1.29025,0.00339315],[0.0900453,-1.288,0.00339316],[0.0900349,-1.288,0.0269411],[0.08620836541011412,-1.4616937855285093,0.028365064404785246],[0.08620904810816549,-1.4616996279364067,0.0033931649888209064],[0.11087003643785992,-1.4591122269530927,0.003393167493419179],[0.11085848302582427,-1.4591064438036196,0.028364876456629114]],"scale":0.1723747773328601,"deltaPhi":0.0,"deltaEta":0.0},{"energy":0.0,"eta":0.0670915,"phi":0.53148,"time":0.0,"detid":838928425,"front_1":[1.11872,0.645075,0.0984475],"front_2":[1.1192,0.64539,0.0749068],"front_3":[1.10704,0.663467,0.0749068],"front_4":[1.10656,0.663142,0.0984475],"back_1":[1.31168,0.770086,0.106023],"back_2":[1.31221,0.770427,0.0805823],"back_3":[1.2978,0.791834,0.0805824],"back_4":[1.29728,0.791483,0.106023],"geometricVertices":[[1.11872,0.645075,0.0984475],[1.1192,0.64539,0.0749068],[1.10704,0.663467,0.0749068],[1.10656,0.663142,0.0984475],[1.11872,0.645075,0.0984475],[1.1192,0.64539,0.0749068],[1.10704,0.663467,0.0749068],[1.10656,0.663142,0.0984475]],"scale":0.0,"deltaPhi":0.0,"deltaEta":0.0},{"energy":0.0,"eta":0.0856038,"phi":0.531484,"time":0.0,"detid":838928937,"front_1":[1.11872,0.645074,0.122422],"front_2":[1.11936,0.645498,0.0988864],"front_3":[1.1072,0.663575,0.0988864],"front_4":[1.10656,0.663142,0.122422],"back_1":[1.31162,0.770047,0.131888],"back_2":[1.31232,0.770505,0.106453],"back_3":[1.29792,0.791912,0.106453],"back_4":[1.29722,0.791444,0.131887],"geometricVertices":[[1.11872,0.645074,0.122422],[1.11936,0.645498,0.0988864],[1.1072,0.663575,0.0988864],[1.10656,0.663142,0.122422],[1.11872,0.645074,0.122422],[1.11936,0.645498,0.0988864],[1.1072,0.663575,0.0988864],[1.10656,0.663142,0.122422]],"scale":0.0,"deltaPhi":0.0,"deltaEta":0.0},{"energy":0.583452,"eta":0.103983,"phi":-1.65058,"time":-2.04753,"detid":838929684,"front_1":[-0.1139,-1.28764,0.145728],"front_2":[-0.113932,-1.28855,0.123571],"front_3":[-0.0921289,-1.28933,0.123571],"front_4":[-0.092136,-1.28842,0.145728],"back_1":[-0.122123,-1.51713,0.159194],"back_2":[-0.122161,-1.5182,0.133029],"back_3":[-0.0963687,-1.51913,0.133029],"back_4":[-0.0963771,-1.51805,0.159194],"geometricVertices":[[-0.1139,-1.28764,0.145728],[-0.113932,-1.28855,0.123571],[-0.0921289,-1.28933,0.123571],[-0.092136,-1.28842,0.145728],[-0.11737548990904789,-1.384635035781029,0.15141946869940884],[-0.11741062801517882,-1.3856294657535322,0.12756916062310866],[-0.09392085701776379,-1.3864552706925137,0.12756843607576063],[-0.09392827298806469,-1.3854607786303779,0.15141868120470614]],"scale":0.09722401355749187,"deltaPhi":0.0,"deltaEta":0.0},{"energy":1.01954,"eta":0.121236,"phi":-1.66773,"time":-1.36276,"detid":838930195,"front_1":[-0.136082,-1.28684,0.168327],"front_2":[-0.136168,-1.28814,0.146189],"front_3":[-0.114365,-1.28892,0.146189],"front_4":[-0.114318,-1.28762,0.168327],"back_1":[-0.148277,-1.51592,0.185787],"back_2":[-0.148379,-1.51745,0.159645],"back_3":[-0.122586,-1.51838,0.159645],"back_4":[-0.122532,-1.51684,0.185787],"geometricVertices":[[-0.136082,-1.28684,0.168327],[-0.136168,-1.28814,0.146189],[-0.114365,-1.28892,0.146189],[-0.114318,-1.28762,0.168327],[-0.14508730757721003,-1.4560024321268776,0.18122020789652213],[-0.1451866534769482,-1.4575010211120292,0.15612717059911677],[-0.12043749653801936,-1.4584121610040048,0.15612836423982346],[-0.12038454678523171,-1.456913140261847,0.18122228936816964]],"scale":0.16989190333121704,"deltaPhi":0.0,"deltaEta":0.0},{"energy":0.395883,"eta":0.138397,"phi":-1.56106,"time":-3.16248,"detid":838930713,"front_1":[0.00168089,-1.29334,0.190643],"front_2":[0.00175671,-1.29502,0.168531],"front_3":[0.0235228,-1.29352,0.168531],"front_4":[0.0234073,-1.29184,0.190643],"back_1":[0.0134331,-1.5221,0.212092],"back_2":[0.0135226,-1.52409,0.18598],"back_3":[0.0392708,-1.52232,0.18598],"back_4":[0.0391344,-1.52033,0.212092],"geometricVertices":[[0.00168089,-1.29334,0.190643],[0.00175671,-1.29502,0.168531],[0.0235228,-1.29352,0.168531],[0.0234073,-1.29184,0.190643],[0.0050507098605919645,-1.3589344704280315,0.19679327013556064],[0.005130877778000515,-1.3607116402334696,0.17353494390550403],[0.028039539119976586,-1.359142930572177,0.17353560889665173],[0.027917483162542934,-1.3573658598730494,0.196794097065154]],"scale":0.06596829586526493,"deltaPhi":0.0,"deltaEta":0.0},{"energy":0.33903,"eta":0.138516,"phi":-1.5439,"time":-6.5107,"detid":838930714,"front_1":[0.0238251,-1.29181,0.190643],"front_2":[0.0239407,-1.29349,0.168531],"front_3":[0.0457068,-1.29199,0.168531],"front_4":[0.0455515,-1.29032,0.190643],"back_1":[0.0395522,-1.52031,0.212092],"back_2":[0.0396886,-1.52229,0.18598],"back_3":[0.0654368,-1.52051,0.18598],"back_4":[0.0652535,-1.51854,0.212092],"geometricVertices":[[0.0238251,-1.29181,0.190643],[0.0239407,-1.29349,0.168531],[0.0457068,-1.29199,0.168531],[0.0455515,-1.29032,0.190643],[0.02768740622093066,-1.3479256838503382,0.19591050679608712],[0.027808763002430965,-1.3496887830095572,0.17281689407663356],[0.05055235681432149,-1.3481129925599973,0.1728163583807955],[0.0503893818370891,-1.3463600666358986,0.19590986262936375]],"scale":0.05649454850852593,"deltaPhi":0.0,"deltaEta":0.0},{"energy":0.435826,"eta":0.155716,"phi":-1.56105,"time":-1.20047,"detid":838931225,"front_1":[0.00168088,-1.29334,0.213302],"front_2":[0.00178312,-1.2954,0.191223],"front_3":[0.0235492,-1.2939,0.191223],"front_4":[0.0234073,-1.29184,0.213302],"back_1":[0.0134051,-1.5217,0.238733],"back_2":[0.0135258,-1.52413,0.21266],"back_3":[0.039274,-1.52236,0.21266],"back_4":[0.0391064,-1.51993,0.238733],"geometricVertices":[[0.00168088,-1.29334,0.213302],[0.00178312,-1.2954,0.191223],[0.0235492,-1.2939,0.191223],[0.0234073,-1.29184,0.213302],[0.00538175464442418,-1.3654242609402336,0.22132956542288965],[0.005490439332042087,-1.367613085157561,0.1979909443296578],[0.028514387076496835,-1.3660374287429071,0.1979918438236965],[0.02836355433961612,-1.3638487172081866,0.2213306452160173]],"scale":0.07262423118389764,"deltaPhi":0.0,"deltaEta":0.0},{"energy":0.320503,"eta":0.15585,"phi":-1.54389,"time":5.90063,"detid":838931226,"front_1":[0.0238251,-1.29181,0.213302],"front_2":[0.0239671,-1.29387,0.191223],"front_3":[0.0457332,-1.29238,0.191223],"front_4":[0.0455515,-1.29032,0.213302],"back_1":[0.0395242,-1.5199,0.238733],"back_2":[0.0396918,-1.52233,0.21266],"back_3":[0.06544,-1.52056,0.21266],"back_4":[0.0652255,-1.51813,0.238733],"geometricVertices":[[0.0238251,-1.29181,0.213302],[0.0239671,-1.29387,0.191223],[0.0457332,-1.29238,0.191223],[0.0455515,-1.29032,0.213302],[0.027469890316800704,-1.3447646421998123,0.21920620231392618],[0.027618436269137105,-1.3469192972232897,0.19620075446281915],[0.050308623107464645,-1.3453576546502366,0.19620013201304726],[0.050118566299783444,-1.343203164265206,0.21920547987545963]],"scale":0.053407286318697705,"deltaPhi":0.0,"deltaEta":0.0},{"energy":1.18432,"eta":0.329615,"phi":0.234709,"time":-0.29329,"detid":838936088,"front_1":[1.25818,0.289507,0.444926],"front_2":[1.2638,0.291114,0.423283],"front_3":[1.25779,0.312156,0.423283],"front_4":[1.2522,0.310448,0.444926],"back_1":[1.4707,0.350203,0.508673],"back_2":[1.4773,0.352086,0.483306],"back_3":[1.47023,0.376839,0.483306],"back_4":[1.46367,0.374837,0.508673],"geometricVertices":[[1.25818,0.289507,0.444926],[1.2638,0.291114,0.423283],[1.25779,0.312156,0.423283],[1.2522,0.310448,0.444926],[1.440510116704513,0.34158072841848824,0.49961731352137495],[1.4469879346289063,0.34342938524680877,0.4747841213125566],[1.4400429223989466,0.36764774251332644,0.4747769143341743],[1.4336005673489138,0.3656813717833698,0.4996086593218481]],"scale":0.19735015688764246,"deltaPhi":0.0,"deltaEta":0.0},{"energy":0.489799,"eta":0.347005,"phi":0.338312,"time":-0.392564,"detid":838936606,"front_1":[1.22131,0.417998,0.468659],"front_2":[1.22707,0.420319,0.447117],"front_3":[1.21889,0.440617,0.447117],"front_4":[1.21317,0.438198,0.468659],"back_1":[1.4253,0.500182,0.536097],"back_2":[1.43205,0.502903,0.510848],"back_3":[1.42243,0.52678,0.510848],"back_4":[1.41573,0.523944,0.536097],"geometricVertices":[[1.22131,0.417998,0.468659],[1.22707,0.420319,0.447117],[1.21889,0.440617,0.447117],[1.21317,0.438198,0.468659],[1.293688542186632,0.4471580476055992,0.4925869578802005],[1.299810432591532,0.44962525370835726,0.4697329650184941],[1.2911087251814108,0.4711887894163599,0.4697296145943622],[1.2850297511225888,0.4686170670406669,0.4925831602300807]],"scale":0.08161806732421169,"deltaPhi":0.0,"deltaEta":0.0},{"energy":0.318297,"eta":0.764177,"phi":-2.60559,"time":-2.33543,"detid":838949085,"front_1":[-1.11698,-0.650473,1.10103],"front_2":[-1.12842,-0.657883,1.08278],"front_3":[-1.11613,-0.67615,1.08278],"front_4":[-1.10482,-0.668541,1.10103],"back_1":[-1.2701,-0.749711,1.24113],"back_2":[-1.28309,-0.758125,1.2204],"back_3":[-1.26902,-0.779035,1.2204],"back_4":[-1.25618,-0.770395,1.24113],"geometricVertices":[[-1.11698,-0.650473,1.10103],[-1.12842,-0.657883,1.08278],[-1.11613,-0.67615,1.08278],[-1.10482,-0.668541,1.10103],[-1.1522832803622185,-0.6733532699620286,1.133331394845525],[-1.1640844868675004,-0.6809972399468027,1.1145130230988907],[-1.1513875759386607,-0.6998760494502525,1.1145161998867061],[-1.1397207363879276,-0.6920265946356764,1.1333343946085401]],"scale":0.05303968765778331,"deltaPhi":0.0,"deltaEta":0.0},{"energy":1.78647,"eta":0.764705,"phi":-2.58841,"time":-1.87392,"detid":838949086,"front_1":[-1.10458,-0.668898,1.10103],"front_2":[-1.11589,-0.676507,1.08278],"front_3":[-1.1036,-0.694774,1.08278],"front_4":[-1.09242,-0.686966,1.10103],"back_1":[-1.25594,-0.770752,1.24113],"back_2":[-1.26878,-0.779392,1.2204],"back_3":[-1.25471,-0.800302,1.2204],"back_4":[-1.24202,-0.791436,1.24113],"geometricVertices":[[-1.10458,-0.668898,1.10103],[-1.11589,-0.676507,1.08278],[-1.1036,-0.694774,1.08278],[-1.09242,-0.686966,1.10103],[-1.3004634627248797,-0.8007129723333766,1.2823412653789352],[-1.3137762561919817,-0.8096715461986528,1.2609022223634019],[-1.2991644359260084,-0.8313468528515638,1.2608858677264063],[-1.2860073568625663,-0.8221536415202696,1.28232404208854]],"scale":0.2976899273634378,"deltaPhi":0.0,"deltaEta":0.0},{"energy":0.376091,"eta":0.781564,"phi":-1.30212,"time":-2.8126,"detid":838949672,"front_1":[0.332067,-1.24843,1.13018],"front_2":[0.336341,-1.26163,1.11212],"front_3":[0.357287,-1.25484,1.11212],"front_4":[0.352785,-1.24172,1.13018],"back_1":[0.387703,-1.42019,1.27271],"back_2":[0.392557,-1.43518,1.25219],"back_3":[0.416534,-1.42741,1.25219],"back_4":[0.411421,-1.41251,1.27271],"geometricVertices":[[0.332067,-1.24843,1.13018],[0.336341,-1.26163,1.11212],[0.357287,-1.25484,1.11212],[0.352785,-1.24172,1.13018],[0.3472249875490937,-1.2952258865021269,1.1690121943592695],[0.3516587766121688,-1.308919030365766,1.1502863755882042],[0.3734290224599006,-1.3018572129543275,1.1502824906908076],[0.3687587440745948,-1.2882469757572146,1.1690083263345383]],"scale":0.0626702393390556,"deltaPhi":0.0,"deltaEta":0.0},{"energy":1.41547,"eta":0.803322,"phi":-1.25026,"time":-1.05386,"detid":838950187,"front_1":[0.396704,-1.23064,1.16883],"front_2":[0.401795,-1.24398,1.15074],"front_3":[0.422237,-1.23574,1.15074],"front_4":[0.416903,-1.2225,1.16883],"back_1":[0.460739,-1.39753,1.31363],"back_2":[0.466478,-1.41256,1.29325],"back_3":[0.489724,-1.40319,1.29325],"back_4":[0.48371,-1.38827,1.31363],"geometricVertices":[[0.396704,-1.23064,1.16883],[0.401795,-1.24398,1.15074],[0.422237,-1.23574,1.15074],[0.416903,-1.2225,1.16883],[0.4623604543697785,-1.4017558845908071,1.3172965353750907],[0.4681206168587285,-1.4168410684421633,1.296869023986788],[0.4914437815761108,-1.4074571540432934,1.2968816041965348],[0.4854080437402048,-1.3924834014521494,1.3173104037538232]],"scale":0.2358680310809167,"deltaPhi":0.0,"deltaEta":0.0},{"energy":0.471798,"eta":0.820519,"phi":-1.25025,"time":2.28921,"detid":838950699,"front_1":[0.396704,-1.23064,1.19896],"front_2":[0.401881,-1.24419,1.18106],"front_3":[0.422323,-1.23595,1.18106],"front_4":[0.416903,-1.2225,1.19896],"back_1":[0.460045,-1.3958,1.34602],"back_2":[0.465881,-1.41108,1.32585],"back_3":[0.489127,-1.40171,1.32585],"back_4":[0.483017,-1.38655,1.34602],"geometricVertices":[[0.396704,-1.23064,1.19896],[0.401881,-1.24419,1.18106],[0.422323,-1.23595,1.18106],[0.416903,-1.2225,1.19896],[0.41835179450642795,-1.287086057698515,1.2492200947271956],[0.42375487294892833,-1.3012295415069788,1.230546219754302],[0.44515718996436343,-1.2926082140065398,1.2305504850748485],[0.43949988738554957,-1.2785701118613213,1.2492231554424014]],"scale":0.07861845558571665,"deltaPhi":0.0,"deltaEta":0.0},{"energy":0.197103,"eta":1.0768,"phi":-3.04445,"time":24.0691,"detid":838958276,"front_1":[-1.28813,-0.114145,1.69612],"front_2":[-1.30567,-0.116594,1.6808],"front_3":[-1.30262,-0.138475,1.6808],"front_4":[-1.28512,-0.135713,1.69612],"back_1":[-1.43536,-0.134701,1.87164],"back_2":[-1.45471,-0.137402,1.85474],"back_3":[-1.4513,-0.16179,1.85474],"back_4":[-1.43201,-0.158745,1.87164],"geometricVertices":[[-1.28813,-0.114145,1.69612],[-1.30567,-0.116594,1.6808],[-1.30262,-0.138475,1.6808],[-1.28512,-0.135713,1.69612],[-1.3091534252088182,-0.1170802545581231,1.7211830414497844],[-1.3269529818152659,-0.11956539214715547,1.7056387134792494],[-1.3238508839360756,-0.14180428476573584,1.705637906590268],[-1.3060933051765493,-0.13900156399228186,1.7211811649846003]],"scale":0.03284442378160041,"deltaPhi":0.0,"deltaEta":0.0},{"energy":1.69788,"eta":1.09562,"phi":-0.604845,"time":-1.36276,"detid":838958928,"front_1":[1.05564,-0.743547,1.73388],"front_2":[1.07079,-0.753031,1.71874],"front_3":[1.08251,-0.734306,1.71874],"front_4":[1.0672,-0.725089,1.73388],"back_1":[1.18008,-0.821465,1.91093],"back_2":[1.19679,-0.831923,1.89424],"back_3":[1.20985,-0.811052,1.89424],"back_4":[1.19297,-0.800888,1.91093],"geometricVertices":[[1.05564,-0.743547,1.73388],[1.07079,-0.753031,1.71874],[1.08251,-0.734306,1.71874],[1.0672,-0.725089,1.73388],[1.2087114901015243,-0.8393925831383042,1.9516661404891908],[1.2257848624103436,-0.8500774657561653,1.934625701214407],[1.2391451129163376,-0.8287077463159827,1.9346145273819477],[1.2218971884295042,-0.8183218232946489,1.9516516244847237]],"scale":0.2829276583831991,"deltaPhi":0.0,"deltaEta":0.0},{"energy":1.76057,"eta":1.15312,"phi":0.721854,"time":0.889639,"detid":838960180,"front_1":[0.975439,0.843571,1.85902],"front_2":[0.988777,0.856427,1.8443],"front_3":[0.973435,0.872345,1.8443],"front_4":[0.960326,0.859252,1.85902],"back_1":[1.0772,0.941656,2.04048],"back_2":[1.09181,0.955733,2.02436],"back_3":[1.07482,0.973362,2.02436],"back_4":[1.06046,0.959024,2.04048],"geometricVertices":[[0.975439,0.843571,1.85902],[0.988777,0.856427,1.8443],[0.973435,0.872345,1.8443],[0.960326,0.859252,1.85902],[1.1052346245938163,0.9686779057721966,2.0904712832892165],[1.120200787163587,0.9830968107214892,2.073975609917944],[1.1027495033152508,1.0011901268076804,2.0739628640029992],[1.0880399954948698,0.9865042895171885,2.0904596870443513]],"scale":0.29337405913239384,"deltaPhi":0.0,"deltaEta":0.0},{"energy":1.22615,"eta":1.18765,"phi":0.881885,"time":-2.40874,"detid":838961213,"front_1":[0.828379,0.988066,1.93769],"front_2":[0.839718,1.00307,1.92333],"front_3":[0.821846,1.01609,1.92333],"front_4":[0.810774,1.00089,1.93769],"back_1":[0.911379,1.09806,2.12187],"back_2":[0.923795,1.1145,2.10615],"back_3":[0.904003,1.12891,2.10615],"back_4":[0.89188,1.11226,2.12187],"geometricVertices":[[0.828379,0.988066,1.93769],[0.839718,1.00307,1.92333],[0.821846,1.01609,1.92333],[0.810774,1.00089,1.93769],[0.9021051273098616,1.0857699957508544,2.101290941300365],[0.9144016466717675,1.1020506813829591,2.085724760571054],[0.8948293018985588,1.1163124535973248,2.0857362131418444],[0.8828219853535993,1.099822065800685,2.101300558311665]],"scale":0.20432053403453695,"deltaPhi":0.0,"deltaEta":0.0},{"energy":9.6215E-05,"eta":1.35656,"phi":3.0319,"time":-25.9239,"detid":838966456,"front_1":[-1.28353,0.152795,2.36694],"front_2":[-1.30381,0.154236,2.35417],"front_3":[-1.30538,0.132157,2.35417],"front_4":[-1.28507,0.131072,2.36694],"back_1":[-1.40391,0.161342,2.56274],"back_2":[-1.42583,0.162899,2.54894],"back_3":[-1.42755,0.138746,2.54894],"back_4":[-1.4056,0.137573,2.56274],"geometricVertices":[[-1.28353,0.152795,2.36694],[-1.30381,0.154236,2.35417],[-1.30538,0.132157,2.35417],[-1.28507,0.131072,2.36694],[-1.2835383913018557,0.15279559578382587,2.366953648587002],[-1.3038185058424332,0.15423660388553517,2.3541835771425235],[-1.3053885158966074,0.13215745928822745,2.3541835765014505],[-1.2850784013332035,0.1310724531408542,2.3669536478971316]],"scale":1.603286725289155E-05,"deltaPhi":0.0,"deltaEta":0.0},{"energy":0.153707,"eta":1.35575,"phi":3.04921,"time":6.64242,"detid":838966457,"front_1":[-1.28738,0.130671,2.36694],"front_2":[-1.30769,0.131758,2.35417],"front_3":[-1.30849,0.109638,2.35417],"front_4":[-1.28816,0.108907,2.36694],"back_1":[-1.40792,0.137058,2.56274],"back_2":[-1.42987,0.138232,2.54894],"back_3":[-1.43074,0.114034,2.54894],"back_4":[-1.40877,0.113244,2.56275],"geometricVertices":[[-1.28738,0.130671,2.36694],[-1.30769,0.131758,2.35417],[-1.30849,0.109638,2.35417],[-1.28816,0.108907,2.36694],[-1.3008024327933936,0.13138220854696703,2.3887428234689434],[-1.3212954504677492,0.1324789173868735,2.375858767290911],[-1.322103950179567,0.1101275453986861,2.3758598901961085],[-1.3015903782022968,0.10938994130058338,2.3887441817079162]],"scale":0.025613094910774844,"deltaPhi":0.0,"deltaEta":0.0},{"energy":0.0,"eta":1.35647,"phi":3.06639,"time":24.0691,"detid":838966458,"front_1":[-1.28818,0.108462,2.36694],"front_2":[-1.3085,0.109193,2.35417],"front_3":[-1.3093,0.0870734,2.35417],"front_4":[-1.28896,0.0866984,2.36694],"back_1":[-1.40879,0.112799,2.56274],"back_2":[-1.43075,0.113589,2.54894],"back_3":[-1.43162,0.0893912,2.54894],"back_4":[-1.40964,0.088986,2.56274],"geometricVertices":[[-1.28818,0.108462,2.36694],[-1.3085,0.109193,2.35417],[-1.3093,0.0870734,2.35417],[-1.28896,0.0866984,2.36694],[-1.28818,0.108462,2.36694],[-1.3085,0.109193,2.35417],[-1.3093,0.0870734,2.35417],[-1.28896,0.0866984,2.36694]],"scale":0.0,"deltaPhi":0.0,"deltaEta":0.0},{"energy":0.141865,"eta":1.35566,"phi":3.0837,"time":-15.5504,"detid":838966459,"front_1":[-1.29126,0.0862168,2.36694],"front_2":[-1.3116,0.0865937,2.35417],"front_3":[-1.31162,0.0644596,2.35417],"front_4":[-1.29128,0.064439,2.36694],"back_1":[-1.41194,0.0883901,2.56274],"back_2":[-1.43392,0.0887974,2.54894],"back_3":[-1.43395,0.0645836,2.54894],"back_4":[-1.41197,0.0645613,2.56274],"geometricVertices":[[-1.29126,0.0862168,2.36694],[-1.3116,0.0865937,2.35417],[-1.31162,0.0644596,2.35417],[-1.29128,0.064439,2.36694],[-1.3036629903973325,0.08644016276956018,2.3870635127593443],[-1.3241719745853546,0.08682019493454664,2.3741883411542632],[-1.3241932869225135,0.06447234493238284,2.374188794195193],[-1.3036842871506216,0.06445156975986843,2.3870639491597623]],"scale":0.02363979330490526,"deltaPhi":0.0,"deltaEta":0.0},{"energy":0.102929,"eta":1.35638,"phi":3.10087,"time":-18.4991,"detid":838966460,"front_1":[-1.29128,0.0639938,2.36694],"front_2":[-1.31162,0.0640145,2.35417],"front_3":[-1.31164,0.0418804,2.35417],"front_4":[-1.2913,0.0422161,2.36694],"back_1":[-1.41197,0.0641161,2.56274],"back_2":[-1.43395,0.0641384,2.54894],"back_3":[-1.43397,0.0399246,2.54894],"back_4":[-1.41199,0.0402873,2.56274],"geometricVertices":[[-1.29128,0.0639938,2.36694],[-1.31162,0.0640145,2.35417],[-1.31164,0.0418804,2.35417],[-1.2913,0.0422161,2.36694],[-1.3002798299237044,0.06400291988731187,2.3815407680757423],[-1.3207424463394821,0.06402373952506712,2.3686944737475755],[-1.3207621178627054,0.041734556477430886,2.3686939507571254],[-1.3002995147717586,0.04207227479416879,2.381540256792695]],"scale":0.017151660276182243,"deltaPhi":0.0,"deltaEta":0.0},{"energy":0.0679385,"eta":1.35558,"phi":3.11818,"time":-21.5734,"detid":838966461,"front_1":[-1.29358,0.0416545,2.36694],"front_2":[-1.31392,0.0413209,2.35417],"front_3":[-1.31317,0.0191995,2.35417],"front_4":[-1.29284,0.0198892,2.36694],"back_1":[-1.41427,0.0396114,2.56274],"back_2":[-1.43625,0.0392509,2.54894],"back_3":[-1.43543,0.015051,2.54894],"back_4":[-1.41346,0.0157963,2.56274],"geometricVertices":[[-1.29358,0.0416545,2.36694],[-1.31392,0.0413209,2.35417],[-1.31317,0.0191995,2.35417],[-1.29284,0.0198892,2.36694],[-1.2995201229112217,0.04155394266202736,2.3765768884416043],[-1.319941046659131,0.04121901520817133,2.3637565221760726],[-1.319187839939524,0.018995303950686118,2.363756902380346],[-1.2987769197039274,0.019687747349890525,2.3765772813631987]],"scale":0.011320988950377513,"deltaPhi":0.0,"deltaEta":0.0},{"energy":0.0,"eta":1.35631,"phi":3.13535,"time":-25.9239,"detid":838966462,"front_1":[-1.29283,0.0194443,2.36694],"front_2":[-1.31315,0.0187547,2.35417],"front_3":[-1.3124,-0.0033667,2.35417],"front_4":[-1.29209,-0.00232101,2.36694],"back_1":[-1.41344,0.0153514,2.56274],"back_2":[-1.43541,0.0146062,2.54894],"back_3":[-1.43459,-0.00959374,2.54894],"back_4":[-1.41264,-0.00846369,2.56274],"geometricVertices":[[-1.29283,0.0194443,2.36694],[-1.31315,0.0187547,2.35417],[-1.3124,-0.0033667,2.35417],[-1.29209,-0.00232101,2.36694],[-1.29283,0.0194443,2.36694],[-1.31315,0.0187547,2.35417],[-1.3124,-0.0033667,2.35417],[-1.29209,-0.00232101,2.36694]],"scale":0.0,"deltaPhi":0.0,"deltaEta":0.0},{"energy":0.0571334,"eta":1.35552,"phi":-3.13052,"time":-21.7286,"detid":838966463,"front_1":[-1.29435,-0.00296179,2.36694],"front_2":[-1.31466,-0.0040055,2.35417],"front_3":[-1.31314,-0.0260872,2.35417],"front_4":[-1.29285,-0.024688,2.36694],"back_1":[-1.41489,-0.00921864,2.56274],"back_2":[-1.43684,-0.0103465,2.54894],"back_3":[-1.43518,-0.034503,2.54894],"back_4":[-1.41325,-0.032991,2.56274],"geometricVertices":[[-1.29435,-0.00296179,2.36694],[-1.31466,-0.0040055,2.35417],[-1.31314,-0.0260872,2.35417],[-1.29285,-0.024688,2.36694],[-1.299339240229309,-0.003220765673873835,2.375044307590001],[-1.3197172723768062,-0.0042679665586947855,2.3622319163597196],[-1.3181916481100984,-0.026435558408431387,2.362232188646377],[-1.2978336310942855,-0.02503168014099545,2.3750446093709394]],"scale":0.009520472046004824,"deltaPhi":0.0,"deltaEta":0.0},{"energy":0.0871871,"eta":1.35547,"phi":-3.09604,"time":13.2235,"detid":838966465,"front_1":[-1.29355,-0.0475775,2.36694],"front_2":[-1.31382,-0.0493301,2.35417],"front_3":[-1.31153,-0.0713451,2.35417],"front_4":[-1.2913,-0.0692381,2.36694],"back_1":[-1.4138,-0.0580406,2.56274],"back_2":[-1.4357,-0.0599345,2.54894],"back_3":[-1.43319,-0.0840181,2.54894],"back_4":[-1.41133,-0.0817412,2.56274],"geometricVertices":[[-1.29355,-0.0475775,2.36694],[-1.31382,-0.0493301,2.35417],[-1.31153,-0.0713451,2.35417],[-1.2913,-0.0692381,2.36694],[-1.3011453611251114,-0.048238381688051175,2.3793073322935285],[-1.3215186544329238,-0.04999993599498276,2.366472813619138],[-1.319215152157412,-0.07214564194715503,2.366473444728745],[-1.298881895931294,-0.07002787924700961,2.379308034852515]],"scale":0.014528495561654428,"deltaPhi":0.0,"deltaEta":0.0},{"energy":0.092256,"eta":1.35622,"phi":-3.07888,"time":-11.7843,"detid":838966466,"front_1":[-1.29125,-0.0696809,2.36694],"front_2":[-1.31148,-0.0717878,2.35417],"front_3":[-1.30919,-0.0938029,2.35417],"front_4":[-1.28899,-0.0913415,2.36694],"back_1":[-1.41129,-0.0821839,2.56274],"back_2":[-1.43315,-0.0844608,2.54894],"back_3":[-1.43064,-0.108544,2.54894],"back_4":[-1.40882,-0.105884,2.56274],"geometricVertices":[[-1.29125,-0.0696809,2.36694],[-1.31148,-0.0717878,2.35417],[-1.30919,-0.0938029,2.35417],[-1.28899,-0.0913415,2.36694],[-1.2992731801544122,-0.07051656995560328,2.3800267933541646],[-1.319612434347344,-0.0726348645227574,2.3671884452850516],[-1.3173074833412215,-0.09478816664208546,2.3671880504764897],[-1.2969987819675601,-0.0923134411813673,2.380026201362332]],"scale":0.015373155966146265,"deltaPhi":0.0,"deltaEta":0.0},{"energy":0.0,"eta":1.35544,"phi":-3.06157,"time":24.0691,"detid":838966467,"front_1":[-1.2912,-0.0921383,2.36694],"front_2":[-1.31139,-0.0945977,2.35417],"front_3":[-1.30833,-0.116519,2.35417],"front_4":[-1.28819,-0.113707,2.36694],"back_1":[-1.41101,-0.106795,2.56274],"back_2":[-1.43283,-0.109453,2.54894],"back_3":[-1.42949,-0.133434,2.54894],"back_4":[-1.40772,-0.130395,2.56274],"geometricVertices":[[-1.2912,-0.0921383,2.36694],[-1.31139,-0.0945977,2.35417],[-1.30833,-0.116519,2.35417],[-1.28819,-0.113707,2.36694],[-1.2912,-0.0921383,2.36694],[-1.31139,-0.0945977,2.35417],[-1.30833,-0.116519,2.35417],[-1.28819,-0.113707,2.36694]],"scale":0.0,"deltaPhi":0.0,"deltaEta":0.0},{"energy":0.0038709,"eta":1.37367,"phi":3.0319,"time":-24.9216,"detid":838966968,"front_1":[-1.28353,0.152795,2.41343],"front_2":[-1.30392,0.154243,2.40083],"front_3":[-1.30549,0.132164,2.40083],"front_4":[-1.28507,0.131072,2.41343],"back_1":[-1.40227,0.161225,2.61024],"back_2":[-1.42431,0.16279,2.59662],"back_3":[-1.42602,0.138637,2.59662],"back_4":[-1.40395,0.137456,2.61024],"geometricVertices":[[-1.28353,0.152795,2.41343],[-1.30392,0.154243,2.40083],[-1.30549,0.132164,2.40083],[-1.28507,0.131072,2.41343],[-1.283862990156158,0.15281864078673077,2.413981926837068],[-1.304257629805107,0.15426696978108023,2.4013790866312976],[-1.3058280141965681,0.1321821528739267,2.4013790732560034],[-1.2854033734494354,0.13108990255805178,2.413981911411368]],"scale":0.0006450306693261747,"deltaPhi":0.0,"deltaEta":0.0},{"energy":0.0,"eta":1.37285,"phi":3.04922,"time":24.0691,"detid":838966969,"front_1":[-1.28738,0.130671,2.41343],"front_2":[-1.3078,0.131762,2.40083],"front_3":[-1.3086,0.109642,2.40083],"front_4":[-1.28816,0.108907,2.41343],"back_1":[-1.40627,0.136999,2.61024],"back_2":[-1.42834,0.138177,2.59662],"back_3":[-1.42921,0.113979,2.59662],"back_4":[-1.40713,0.113185,2.61024],"geometricVertices":[[-1.28738,0.130671,2.41343],[-1.3078,0.131762,2.40083],[-1.3086,0.109642,2.40083],[-1.28816,0.108907,2.41343],[-1.28738,0.130671,2.41343],[-1.3078,0.131762,2.40083],[-1.3086,0.109642,2.40083],[-1.28816,0.108907,2.41343]],"scale":0.0,"deltaPhi":0.0,"deltaEta":0.0},{"energy":0.135699,"eta":1.37358,"phi":3.06639,"time":10.2192,"detid":838966970,"front_1":[-1.28818,0.108462,2.41343],"front_2":[-1.30861,0.109197,2.40083],"front_3":[-1.30941,0.0870771,2.40083],"front_4":[-1.28896,0.0866985,2.41343],"back_1":[-1.40714,0.11274,2.61024],"back_2":[-1.42922,0.113534,2.59662],"back_3":[-1.43009,0.0893361,2.59662],"back_4":[-1.408,0.0889269,2.61024],"geometricVertices":[[-1.28818,0.108462,2.41343],[-1.30861,0.109197,2.40083],[-1.30941,0.0870771,2.40083],[-1.28896,0.0866985,2.41343],[-1.2998750458513135,0.10888257335366441,2.432778537104884],[-1.3204677800676672,0.10962339243971041,2.420079106702998],[-1.3212743050934883,0.08729918705010102,2.4200785274631595],[-1.30066227981599,0.0869175638469586,2.4327774940405322]],"scale":0.02261231672140654,"deltaPhi":0.0,"deltaEta":0.0},{"energy":0.106373,"eta":1.37276,"phi":3.0837,"time":-16.4367,"detid":838966971,"front_1":[-1.29126,0.0862169,2.41343],"front_2":[-1.3117,0.0865938,2.40083],"front_3":[-1.31173,0.0644597,2.40083],"front_4":[-1.29128,0.0644391,2.41343],"back_1":[-1.4103,0.0883885,2.61024],"back_2":[-1.43239,0.0887958,2.59662],"back_3":[-1.43241,0.0645819,2.59662],"back_4":[-1.41032,0.0645597,2.61024],"geometricVertices":[[-1.29126,0.0862169,2.41343],[-1.3117,0.0865938,2.40083],[-1.31173,0.0644597,2.40083],[-1.29128,0.0644391,2.41343],[-1.3004333141055786,0.08638424516894888,2.4285963302177325],[-1.321000883162775,0.08676349545715827,2.4159184076099076],[-1.3210307496113902,0.06446911789528101,2.4159194412198715],[-1.300453721683296,0.06444839394182632,2.4285970040699723]],"scale":0.017725554105823757,"deltaPhi":0.0,"deltaEta":0.0},{"energy":0.237848,"eta":1.37349,"phi":3.10087,"time":17.9153,"detid":838966972,"front_1":[-1.29128,0.0639939,2.41343],"front_2":[-1.31173,0.0640146,2.40083],"front_3":[-1.31175,0.0418805,2.40083],"front_4":[-1.2913,0.0422161,2.41343],"back_1":[-1.41032,0.0641145,2.61024],"back_2":[-1.43242,0.0641369,2.59662],"back_3":[-1.43244,0.039923,2.59662],"back_4":[-1.41034,0.0402857,2.61024],"geometricVertices":[[-1.29128,0.0639939,2.41343],[-1.31173,0.0640146,2.40083],[-1.31175,0.0418805,2.40083],[-1.2913,0.0422161,2.41343],[-1.3117922667869535,0.06401468107673478,2.447343131941703],[-1.3325275475783636,0.06403567498607038,2.434568933137524],[-1.3325467973224105,0.04154319176602354,2.4345677160307795],[-1.311811547234106,0.041883476589543694,2.4473419422979203]],"scale":0.039634001043140354,"deltaPhi":0.0,"deltaEta":0.0},{"energy":0.347051,"eta":1.37269,"phi":3.11819,"time":2.11458,"detid":838966973,"front_1":[-1.29358,0.0416545,2.41343],"front_2":[-1.31403,0.0413172,2.40083],"front_3":[-1.31328,0.0191958,2.40083],"front_4":[-1.29284,0.0198893,2.41343],"back_1":[-1.41262,0.0396674,2.61024],"back_2":[-1.43472,0.0393028,2.59662],"back_3":[-1.4339,0.0151029,2.59662],"back_4":[-1.41181,0.0158523,2.61024],"geometricVertices":[[-1.29358,0.0416545,2.41343],[-1.31403,0.0413172,2.40083],[-1.31328,0.0191958,2.40083],[-1.29284,0.0198893,2.41343],[-1.3235089379624583,0.04115490496786625,2.4629118067909226],[-1.3443751527493302,0.040810718305590764,2.4500575868488803],[-1.3436087558582863,0.018166679084294646,2.4500595399560097],[-1.3227525575376786,0.018874279450452985,2.4629138232242624]],"scale":0.05783113457343725,"deltaPhi":0.0,"deltaEta":0.0},{"energy":0.204121,"eta":1.37342,"phi":3.13535,"time":-19.3094,"detid":838966974,"front_1":[-1.29283,0.0194443,2.41343],"front_2":[-1.31326,0.018751,2.40083],"front_3":[-1.31251,-0.00337039,2.40083],"front_4":[-1.29209,-0.00232093,2.41343],"back_1":[-1.4118,0.0154073,2.61024],"back_2":[-1.43388,0.014658,2.59662],"back_3":[-1.43306,-0.00954187,2.59662],"back_4":[-1.41099,-0.00840776,2.61024],"geometricVertices":[[-1.29283,0.0194443,2.41343],[-1.31326,0.018751,2.40083],[-1.31251,-0.00337039,2.40083],[-1.29209,-0.00232093,2.41343],[-1.3104233253531858,0.01884730702319231,2.4425343318715687],[-1.3310981158004165,0.01814569898879867,2.4297847727786728],[-1.3303370134758,-0.004283032531112642,2.4297835542797745],[-1.309672292237814,-0.0032210176691496437,2.4425332038294716]],"scale":0.03401387409995817,"deltaPhi":0.0,"deltaEta":0.0},{"energy":0.0403807,"eta":1.37263,"phi":-3.13052,"time":24.0691,"detid":838966975,"front_1":[-1.29435,-0.00296175,2.41343],"front_2":[-1.31477,-0.00401287,2.40083],"front_3":[-1.31324,-0.0260945,2.40083],"front_4":[-1.29285,-0.024688,2.41343],"back_1":[-1.41324,-0.0091053,2.61024],"back_2":[-1.43531,-0.0102412,2.59662],"back_3":[-1.43365,-0.0343977,2.59662],"back_4":[-1.41161,-0.0328776,2.61024],"geometricVertices":[[-1.29435,-0.00296175,2.41343],[-1.31477,-0.00401287,2.40083],[-1.31324,-0.0260945,2.40083],[-1.29285,-0.024688,2.41343],[-1.297828019678932,-0.00314147401209945,2.4191874989739306],[-1.3182964337021832,-0.004195081654391224,2.406557894927414],[-1.3167626695496444,-0.026337415287805057,2.406557958401502],[-1.2963242681353393,-0.024927582909406994,2.4191875843020894]],"scale":0.006728871825378972,"deltaPhi":0.0,"deltaEta":0.0},{"energy":0.0414718,"eta":1.37258,"phi":-3.09604,"time":13.7993,"detid":838966977,"front_1":[-1.29355,-0.0475775,2.41343],"front_2":[-1.31392,-0.0493412,2.40083],"front_3":[-1.31163,-0.0713562,2.40083],"front_4":[-1.2913,-0.0692381,2.41343],"back_1":[-1.41216,-0.0578699,2.61024],"back_2":[-1.43418,-0.0597759,2.59662],"back_3":[-1.43167,-0.0838595,2.59662],"back_4":[-1.4097,-0.0815705,2.61024],"geometricVertices":[[-1.29355,-0.0475775,2.41343],[-1.31392,-0.0493412,2.40083],[-1.31163,-0.0713562,2.40083],[-1.2913,-0.0692381,2.41343],[-1.297113527533096,-0.04788672561994468,2.419342974064486],[-1.3175332152263308,-0.049654710867472106,2.406712516291064],[-1.315236789957263,-0.07173188124685642,2.406712817441957],[-1.294857339892754,-0.06960862819673481,2.4193431762186903]],"scale":0.006910688189351638,"deltaPhi":0.0,"deltaEta":0.0},{"energy":0.055851,"eta":1.37333,"phi":-3.07887,"time":0.872328,"detid":838966978,"front_1":[-1.29125,-0.0696808,2.41343],"front_2":[-1.31159,-0.071799,2.40083],"front_3":[-1.30929,-0.093814,2.40083],"front_4":[-1.28899,-0.0913414,2.41343],"back_1":[-1.40965,-0.0820132,2.61024],"back_2":[-1.43163,-0.0843023,2.59662],"back_3":[-1.42912,-0.108386,2.59662],"back_4":[-1.40718,-0.105714,2.61024],"geometricVertices":[[-1.29125,-0.0696808,2.41343],[-1.31159,-0.071799,2.40083],[-1.30929,-0.093814,2.40083],[-1.28899,-0.0913414,2.41343],[-1.2960407491440018,-0.07017979860425244,2.4213934065796536],[-1.3164473446511387,-0.0723049383320275,2.4087525217364747],[-1.314138588759416,-0.09440361558376205,2.408752099584462],[-1.2937720351248498,-0.09192292363174055,2.4213930453754267]],"scale":0.009306778246024485,"deltaPhi":0.0,"deltaEta":0.0},{"energy":0.0,"eta":1.37254,"phi":-3.06156,"time":24.0691,"detid":838966979,"front_1":[-1.2912,-0.0921382,2.41343],"front_2":[-1.3115,-0.0946125,2.40083],"front_3":[-1.30844,-0.116534,2.40083],"front_4":[-1.28819,-0.113707,2.41343],"back_1":[-1.40938,-0.106567,2.61024],"back_2":[-1.43132,-0.109241,2.59662],"back_3":[-1.42797,-0.133222,2.59662],"back_4":[-1.40609,-0.130167,2.61024],"geometricVertices":[[-1.2912,-0.0921382,2.41343],[-1.3115,-0.0946125,2.40083],[-1.30844,-0.116534,2.40083],[-1.28819,-0.113707,2.41343],[-1.2912,-0.0921382,2.41343],[-1.3115,-0.0946125,2.40083],[-1.30844,-0.116534,2.40083],[-1.28819,-0.113707,2.41343]],"scale":0.0,"deltaPhi":0.0,"deltaEta":0.0},{"energy":0.798579,"eta":1.39195,"phi":2.70012,"time":0.880988,"detid":838967461,"front_1":[-1.16262,0.561995,2.46112],"front_2":[-1.18153,0.570044,2.44869],"front_3":[-1.18984,0.54953,2.44869],"front_4":[-1.1708,0.541812,2.46112],"back_1":[-1.27064,0.607983,2.65892],"back_2":[-1.29108,0.61668,2.64549],"back_3":[-1.30017,0.594239,2.64549],"back_4":[-1.27959,0.585898,2.65892],"geometricVertices":[[-1.16262,0.561995,2.46112],[-1.18153,0.570044,2.44869],[-1.18984,0.54953,2.44869],[-1.1708,0.541812,2.46112],[-1.2251127399614385,0.5886004075666232,2.5755531046507367],[-1.2449089066209869,0.5970247274228786,2.5625464018531283],[-1.253672890790911,0.5753969873504109,2.5625512608325143],[-1.2337408111372805,0.5673180998234961,2.5755578384314193]],"scale":0.13307188170188516,"deltaPhi":0.0,"deltaEta":0.0},{"energy":0.0,"eta":1.39076,"phi":3.0319,"time":-25.9239,"detid":838967480,"front_1":[-1.28353,0.152795,2.46057],"front_2":[-1.30402,0.15425,2.44813],"front_3":[-1.30559,0.132172,2.44813],"front_4":[-1.28507,0.131072,2.46057],"back_1":[-1.40062,0.161108,2.65836],"back_2":[-1.42277,0.162681,2.64493],"back_3":[-1.42448,0.138528,2.64493],"back_4":[-1.4023,0.137339,2.65836],"geometricVertices":[[-1.28353,0.152795,2.46057],[-1.30402,0.15425,2.44813],[-1.30559,0.132172,2.44813],[-1.28507,0.131072,2.46057],[-1.28353,0.152795,2.46057],[-1.30402,0.15425,2.44813],[-1.30559,0.132172,2.44813],[-1.28507,0.131072,2.46057]],"scale":0.0,"deltaPhi":0.0,"deltaEta":0.0},{"energy":0.0606714,"eta":1.38994,"phi":3.04922,"time":-12.709,"detid":838967481,"front_1":[-1.28738,0.130671,2.46057],"front_2":[-1.3079,0.131765,2.44813],"front_3":[-1.3087,0.109645,2.44813],"front_4":[-1.28816,0.108907,2.46057],"back_1":[-1.40462,0.136939,2.65836],"back_2":[-1.4268,0.138122,2.64493],"back_3":[-1.42767,0.113924,2.64493],"back_4":[-1.40547,0.113126,2.65836],"geometricVertices":[[-1.28738,0.130671,2.46057],[-1.3079,0.131765,2.44813],[-1.3087,0.109645,2.44813],[-1.28816,0.108907,2.46057],[-1.292533215218061,0.13094650625201987,2.4692637430738684],[-1.3131260574529233,0.13204441166718445,2.4567800261289765],[-1.3139294035703,0.10983308622238644,2.4567804717377073],[-1.2933165390810486,0.10909245254780449,2.469264159618452]],"scale":0.010110029644515765,"deltaPhi":0.0,"deltaEta":0.0},{"energy":0.0,"eta":1.39066,"phi":3.06639,"time":24.0691,"detid":838967482,"front_1":[-1.28818,0.108462,2.46057],"front_2":[-1.30872,0.109201,2.44813],"front_3":[-1.30951,0.087081,2.44813],"front_4":[-1.28896,0.0866984,2.46057],"back_1":[-1.40549,0.112681,2.65836],"back_2":[-1.42768,0.113479,2.64493],"back_3":[-1.42855,0.0892808,2.64493],"back_4":[-1.40634,0.0888673,2.65836],"geometricVertices":[[-1.28818,0.108462,2.46057],[-1.30872,0.109201,2.44813],[-1.30951,0.087081,2.44813],[-1.28896,0.0866984,2.46057],[-1.28818,0.108462,2.46057],[-1.30872,0.109201,2.44813],[-1.30951,0.087081,2.44813],[-1.28896,0.0866984,2.46057]],"scale":0.0,"deltaPhi":0.0,"deltaEta":0.0},{"energy":0.314038,"eta":1.38985,"phi":3.08371,"time":-10.8429,"detid":838967483,"front_1":[-1.29126,0.0862168,2.46057],"front_2":[-1.31181,0.0865939,2.44813],"front_3":[-1.31183,0.0644598,2.44813],"front_4":[-1.29128,0.064439,2.46057],"back_1":[-1.40864,0.0883868,2.65836],"back_2":[-1.43085,0.0887943,2.64493],"back_3":[-1.43087,0.0645804,2.64493],"back_4":[-1.40866,0.064558,2.65836],"geometricVertices":[[-1.29126,0.0862168,2.46057],[-1.31181,0.0865939,2.44813],[-1.31183,0.0644598,2.44813],[-1.29128,0.064439,2.46057],[-1.3179655712311003,0.08671050497164327,2.5055699568393193],[-1.3388927460697106,0.08709451218457487,2.4929038947120215],[-1.3389139816969267,0.06448723891290868,2.492905937482822],[-1.3179867562534413,0.06446607534498347,2.5055719536494134]],"scale":0.05232998561932709,"deltaPhi":0.0,"deltaEta":0.0},{"energy":6.00111,"eta":1.39058,"phi":3.10087,"time":-1.1525,"detid":838967484,"front_1":[-1.29128,0.0639938,2.46057],"front_2":[-1.31183,0.0640147,2.44813],"front_3":[-1.31185,0.0418806,2.44813],"front_4":[-1.2913,0.042216,2.46057],"back_1":[-1.40867,0.0641128,2.65836],"back_2":[-1.43087,0.0641353,2.64493],"back_3":[-1.4309,0.0399215,2.64493],"back_4":[-1.40869,0.040284,2.65836],"geometricVertices":[[-1.29128,0.0639938,2.46057],[-1.31183,0.0640147,2.44813],[-1.31185,0.0418806,2.44813],[-1.2913,0.042216,2.46057],[-1.8016649831338816,0.06451118489643862,3.3205158711478857],[-1.8293914205963695,0.06453904397953568,3.3037758969536752],[-1.82942454775394,0.03336333585464307,3.303725724468503],[-1.801667046455018,0.03381639923544516,3.320485649700468]],"scale":1.0,"deltaPhi":0.0,"deltaEta":0.0},{"energy":2.02469,"eta":1.38977,"phi":3.11819,"time":-1.47872,"detid":838967485,"front_1":[-1.29358,0.0416545,2.46057],"front_2":[-1.31413,0.0413137,2.44813],"front_3":[-1.31338,0.0191924,2.44813],"front_4":[-1.29284,0.0198892,2.46057],"back_1":[-1.41097,0.0397234,2.65836],"back_2":[-1.43318,0.0393552,2.64493],"back_3":[-1.43236,0.0151553,2.64493],"back_4":[-1.41016,0.0159083,2.65836],"geometricVertices":[[-1.29358,0.0416545,2.46057],[-1.31413,0.0413137,2.44813],[-1.31338,0.0191924,2.44813],[-1.29284,0.0198892,2.46057],[-1.4657706596014983,0.03882191304407145,2.750693439497234],[-1.4887523672571712,0.038440975041804534,2.736795954441086],[-1.4879066182761038,0.013270552541246781,2.736807411974594],[-1.464934994045838,0.014049675947859901,2.7507052614415812]],"scale":0.3373859169386997,"deltaPhi":0.0,"deltaEta":0.0},{"energy":0.14984,"eta":1.39051,"phi":3.13536,"time":12.8537,"detid":838967486,"front_1":[-1.29283,0.0194443,2.46057],"front_2":[-1.31337,0.0187474,2.44813],"front_3":[-1.31262,-0.00337393,2.44813],"front_4":[-1.29209,-0.00232096,2.46057],"back_1":[-1.41014,0.0154634,2.65836],"back_2":[-1.43234,0.0147103,2.64493],"back_3":[-1.43152,-0.00948957,2.64493],"back_4":[-1.40934,-0.00835165,2.65836],"geometricVertices":[[-1.29283,0.0194443,2.46057],[-1.31337,0.0187474,2.44813],[-1.31262,-0.00337393,2.44813],[-1.29209,-0.00232096,2.46057],[-1.3055653262745353,0.01901212831500897,2.482042339816217],[-1.326285290062031,0.018309135584521935,2.4694944539313077],[-1.325527147810287,-0.004037811155883126,2.4694935549963373],[-1.3048180368767919,-0.0029756196563965956,2.482041031248279]],"scale":0.024968714121220908,"deltaPhi":0.0,"deltaEta":0.0},{"energy":0.0,"eta":1.38971,"phi":-3.13052,"time":24.0691,"detid":838967487,"front_1":[-1.29435,-0.00296177,2.46057],"front_2":[-1.31487,-0.00402006,2.44813],"front_3":[-1.31335,-0.0261017,2.44813],"front_4":[-1.29285,-0.024688,2.46057],"back_1":[-1.41159,-0.00899146,2.65836],"back_2":[-1.43378,-0.0101351,2.64493],"back_3":[-1.43211,-0.0342916,2.64493],"back_4":[-1.40995,-0.0327638,2.65836],"geometricVertices":[[-1.29435,-0.00296177,2.46057],[-1.31487,-0.00402006,2.44813],[-1.31335,-0.0261017,2.44813],[-1.29285,-0.024688,2.46057],[-1.29435,-0.00296177,2.46057],[-1.31487,-0.00402006,2.44813],[-1.31335,-0.0261017,2.44813],[-1.29285,-0.024688,2.46057]],"scale":0.0,"deltaPhi":0.0,"deltaEta":0.0},{"energy":0.0,"eta":1.39045,"phi":-3.11335,"time":24.0691,"detid":838967488,"front_1":[-1.29282,-0.025132,2.46057],"front_2":[-1.31332,-0.0265459,2.44813],"front_3":[-1.3118,-0.0486275,2.44813],"front_4":[-1.29132,-0.0468582,2.46057],"back_1":[-1.40992,-0.0332078,2.65836],"back_2":[-1.43208,-0.0347358,2.64493],"back_3":[-1.43041,-0.0588923,2.64493],"back_4":[-1.40828,-0.0569801,2.65836],"geometricVertices":[[-1.29282,-0.025132,2.46057],[-1.31332,-0.0265459,2.44813],[-1.3118,-0.0486275,2.44813],[-1.29132,-0.0468582,2.46057],[-1.29282,-0.025132,2.46057],[-1.31332,-0.0265459,2.44813],[-1.3118,-0.0486275,2.44813],[-1.29132,-0.0468582,2.46057]],"scale":0.0,"deltaPhi":0.0,"deltaEta":0.0},{"energy":0.0118611,"eta":1.38966,"phi":-3.09604,"time":-24.9329,"detid":838967489,"front_1":[-1.29355,-0.0475775,2.46057],"front_2":[-1.31403,-0.0493521,2.44813],"front_3":[-1.31174,-0.0713671,2.44813],"front_4":[-1.2913,-0.0692381,2.46057],"back_1":[-1.41052,-0.0576984,2.65836],"back_2":[-1.43265,-0.0596162,2.64493],"back_3":[-1.43014,-0.0836997,2.64493],"back_4":[-1.40805,-0.081399,2.65836],"geometricVertices":[[-1.29355,-0.0475775,2.46057],[-1.31403,-0.0493521,2.44813],[-1.31174,-0.0713671,2.44813],[-1.2913,-0.0692381,2.46057],[-1.2945551208661847,-0.047664468690899964,2.462269605506734],[-1.3150492896641561,-0.04944029837330859,2.4498210824979423],[-1.3127574511820101,-0.07147307819634512,2.4498211688565847],[-1.2923032869578457,-0.06934260426009137,2.4622697013052877]],"scale":0.001976484350395177,"deltaPhi":0.0,"deltaEta":0.0},{"energy":0.0,"eta":1.39041,"phi":-3.07887,"time":24.0691,"detid":838967490,"front_1":[-1.29125,-0.0696808,2.46057],"front_2":[-1.31169,-0.0718098,2.44813],"front_3":[-1.3094,-0.0938248,2.44813],"front_4":[-1.28899,-0.0913415,2.46057],"back_1":[-1.408,-0.0818418,2.65836],"back_2":[-1.43009,-0.0841425,2.64493],"back_3":[-1.42758,-0.108226,2.64493],"back_4":[-1.40553,-0.105542,2.65836],"geometricVertices":[[-1.29125,-0.0696808,2.46057],[-1.31169,-0.0718098,2.44813],[-1.3094,-0.0938248,2.44813],[-1.28899,-0.0913415,2.46057],[-1.29125,-0.0696808,2.46057],[-1.31169,-0.0718098,2.44813],[-1.3094,-0.0938248,2.44813],[-1.28899,-0.0913415,2.46057]],"scale":0.0,"deltaPhi":0.0,"deltaEta":0.0},{"energy":0.144077,"eta":1.38962,"phi":-3.06156,"time":-11.1125,"detid":838967491,"front_1":[-1.2912,-0.0921383,2.46057],"front_2":[-1.3116,-0.094627,2.44813],"front_3":[-1.30854,-0.116548,2.44813],"front_4":[-1.28819,-0.113707,2.46057],"back_1":[-1.40774,-0.106338,2.65836],"back_2":[-1.42979,-0.109028,2.64493],"back_3":[-1.42644,-0.133009,2.64493],"back_4":[-1.40445,-0.129938,2.65836],"geometricVertices":[[-1.2912,-0.0921383,2.46057],[-1.3116,-0.094627,2.44813],[-1.30854,-0.116548,2.44813],[-1.28819,-0.113707,2.46057],[-1.3033644778118478,-0.09362046865955807,2.481215375548356],[-1.3239364233890392,-0.09613014606333489,2.468671569701014],[-1.320846722594824,-0.1182662439409109,2.468672519140469],[-1.300325637874482,-0.11540125028677722,2.481216033160105]],"scale":0.02400839178085388,"deltaPhi":0.0,"deltaEta":0.0},{"energy":0.110643,"eta":1.40791,"phi":3.03191,"time":24.0691,"detid":838967992,"front_1":[-1.28353,0.152794,2.50882],"front_2":[-1.30432,0.15427,2.49645],"front_3":[-1.30589,0.13218,2.49645],"front_4":[-1.28507,0.131071,2.50882],"back_1":[-1.39908,0.160998,2.70752],"back_2":[-1.42141,0.162584,2.69424],"back_3":[-1.42312,0.138556,2.69424],"back_4":[-1.40076,0.137364,2.70752],"geometricVertices":[[-1.28353,0.152794,2.50882],[-1.30432,0.15427,2.49645],[-1.30589,0.13218,2.49645],[-1.28507,0.131071,2.50882],[-1.29279256338759,0.1534516379924863,2.5247479216366435],[-1.3137060749610991,0.1549364602205703,2.512305083837696],[-1.315286912461361,0.1326910868707126,2.512304434152799],[-1.2943433765829842,0.13157542872190092,2.524747218662278]],"scale":0.018437089138509378,"deltaPhi":0.0,"deltaEta":0.0},{"energy":0.0,"eta":1.40708,"phi":3.04922,"time":24.0691,"detid":838967993,"front_1":[-1.28738,0.130672,2.50882],"front_2":[-1.3082,0.131789,2.49645],"front_3":[-1.309,0.109657,2.49645],"front_4":[-1.28816,0.108908,2.50882],"back_1":[-1.40308,0.136749,2.70752],"back_2":[-1.42544,0.137949,2.69424],"back_3":[-1.42631,0.113876,2.69424],"back_4":[-1.40393,0.113071,2.70752],"geometricVertices":[[-1.28738,0.130672,2.50882],[-1.3082,0.131789,2.49645],[-1.309,0.109657,2.49645],[-1.28816,0.108908,2.50882],[-1.28738,0.130672,2.50882],[-1.3082,0.131789,2.49645],[-1.309,0.109657,2.49645],[-1.28816,0.108908,2.50882]],"scale":0.0,"deltaPhi":0.0,"deltaEta":0.0},{"energy":0.155026,"eta":1.40781,"phi":3.0664,"time":13.9007,"detid":838967994,"front_1":[-1.28818,0.108461,2.50882],"front_2":[-1.30901,0.109211,2.49645],"front_3":[-1.30981,0.0870791,2.49645],"front_4":[-1.28896,0.0866974,2.50882],"back_1":[-1.40395,0.112624,2.70752],"back_2":[-1.42632,0.113429,2.69424],"back_3":[-1.42719,0.0893563,2.69424],"back_4":[-1.4048,0.0889464,2.70752],"geometricVertices":[[-1.28818,0.108461,2.50882],[-1.30901,0.109211,2.49645],[-1.30981,0.0870791,2.49645],[-1.28896,0.0866974,2.50882],[-1.3011827172242116,0.10892856769287719,2.531137007104179],[-1.3221858570154317,0.10968475129904603,2.51866509469851],[-1.322993242893504,0.08733485805688437,2.5186642921443703],[-1.3019700947916297,0.08694998721673321,2.531136176062645]],"scale":0.025832887582463913,"deltaPhi":0.0,"deltaEta":0.0},{"energy":0.0776529,"eta":1.40699,"phi":3.08371,"time":24.0691,"detid":838967995,"front_1":[-1.29126,0.0862177,2.50882],"front_2":[-1.3121,0.0866069,2.49645],"front_3":[-1.31213,0.0644611,2.49645],"front_4":[-1.29128,0.0644399,2.50882],"back_1":[-1.4071,0.0882506,2.70752],"back_2":[-1.42949,0.0886685,2.69424],"back_3":[-1.42951,0.06458,2.69424],"back_4":[-1.40713,0.0645573,2.70752],"geometricVertices":[[-1.29126,0.0862177,2.50882],[-1.3121,0.0866069,2.49645],[-1.31213,0.0644611,2.49645],[-1.29128,0.0644399,2.50882],[-1.2977768450761393,0.08633206545541508,2.519998324556534],[-1.3187039928222364,0.0867228791430473,2.5075770443846164],[-1.3187338411693463,0.06446778935691799,2.507577736794045],[-1.2977975186473583,0.06444650471894,2.5199985149350894]],"scale":0.012939756145113154,"deltaPhi":0.0,"deltaEta":0.0},{"energy":0.0813715,"eta":1.40773,"phi":3.10088,"time":-25.9239,"detid":838967996,"front_1":[-1.29128,0.0639929,2.50882],"front_2":[-1.31213,0.0640141,2.49645],"front_3":[-1.31215,0.0418683,2.49645],"front_4":[-1.2913,0.0422151,2.50882],"back_1":[-1.40713,0.0641103,2.70752],"back_2":[-1.42951,0.064133,2.69424],"back_3":[-1.42954,0.0400445,2.69424],"back_4":[-1.40715,0.040417,2.70752],"geometricVertices":[[-1.29128,0.0639929,2.50882],[-1.31213,0.0640141,2.49645],[-1.31215,0.0418683,2.49645],[-1.2913,0.0422151,2.50882],[-1.2981096260489116,0.06399982100214194,2.5205338256013703],[-1.3190500823370597,0.06402110969321756,2.508110615824221],[-1.319070301680929,0.04176078448585332,2.5081099920731833],[-1.298129418251674,0.04210910106207738,2.5205334691981673]],"scale":0.01355940817615408,"deltaPhi":0.0,"deltaEta":0.0},{"energy":0.125311,"eta":1.40691,"phi":3.11819,"time":2.55776,"detid":838967997,"front_1":[-1.29358,0.0416554,2.50882],"front_2":[-1.31443,0.0413163,2.49645],"front_3":[-1.31368,0.0191833,2.49645],"front_4":[-1.29284,0.0198901,2.50882],"back_1":[-1.40942,0.0396411,2.70752],"back_2":[-1.43181,0.039277,2.69424],"back_3":[-1.431,0.0152023,2.69424],"back_4":[-1.40862,0.0159614,2.70752],"geometricVertices":[[-1.29358,0.0416554,2.50882],[-1.31443,0.0413163,2.49645],[-1.31368,0.0191833,2.49645],[-1.29284,0.0198901,2.50882],[-1.3040964514696567,0.04147253321654584,2.5268588372498346],[-1.3250864149470465,0.04113116090474091,2.514406485878142],[-1.3243312086475418,0.018821874312769656,2.514406891905875],[-1.3033512547482942,0.019533427288567776,2.526859266872396]],"scale":0.02088130362549595,"deltaPhi":0.0,"deltaEta":0.0},{"energy":0.0,"eta":1.40766,"phi":3.13536,"time":24.0691,"detid":838967998,"front_1":[-1.29283,0.0194434,2.50882],"front_2":[-1.31366,0.0187365,2.49645],"front_3":[-1.31291,-0.00339656,2.49645],"front_4":[-1.29209,-0.00232188,2.50882],"back_1":[-1.40861,0.0155147,2.70752],"back_2":[-1.43098,0.0147555,2.69424],"back_3":[-1.43016,-0.00931913,2.69424],"back_4":[-1.4078,-0.00816495,2.70752],"geometricVertices":[[-1.29283,0.0194434,2.50882],[-1.31366,0.0187365,2.49645],[-1.31291,-0.00339656,2.49645],[-1.29209,-0.00232188,2.50882],[-1.29283,0.0194434,2.50882],[-1.31366,0.0187365,2.49645],[-1.31291,-0.00339656,2.49645],[-1.29209,-0.00232188,2.50882]],"scale":0.0,"deltaPhi":0.0,"deltaEta":0.0},{"energy":0.137428,"eta":1.40685,"phi":-3.13051,"time":9.94329,"detid":838967999,"front_1":[-1.29435,-0.00296082,2.50882],"front_2":[-1.31517,-0.00402784,2.49645],"front_3":[-1.31364,-0.0261212,2.49645],"front_4":[-1.29285,-0.024687,2.50882],"back_1":[-1.41005,-0.00901979,2.70752],"back_2":[-1.43241,-0.0101657,2.69424],"back_3":[-1.43075,-0.0341972,2.69424],"back_4":[-1.40842,-0.032657,2.70752],"geometricVertices":[[-1.29435,-0.00296082,2.50882],[-1.31517,-0.00402784,2.49645],[-1.31364,-0.0261212,2.49645],[-1.29285,-0.024687,2.50882],[-1.3058693794778813,-0.003564066107822812,2.5286030657066125],[-1.3268428288311,-0.004638947038291164,2.5161426715668993],[-1.325300207040765,-0.026925297276587972,2.5161432145042513],[-1.3043567903753712,-0.025480537417078033,2.528603674375584]],"scale":0.022900430087100552,"deltaPhi":0.0,"deltaEta":0.0},{"energy":0.0,"eta":1.4076,"phi":-3.11334,"time":24.0691,"detid":838968000,"front_1":[-1.29282,-0.0251329,2.50882],"front_2":[-1.31361,-0.0265671,2.49645],"front_3":[-1.31209,-0.0486604,2.49645],"front_4":[-1.29132,-0.0468591,2.50882],"back_1":[-1.40839,-0.0331029,2.70752],"back_2":[-1.43072,-0.0346431,2.69424],"back_3":[-1.42907,-0.0586746,2.69424],"back_4":[-1.40676,-0.05674,2.70752],"geometricVertices":[[-1.29282,-0.0251329,2.50882],[-1.31361,-0.0265671,2.49645],[-1.31209,-0.0486604,2.49645],[-1.29132,-0.0468591,2.50882],[-1.29282,-0.0251329,2.50882],[-1.31361,-0.0265671,2.49645],[-1.31209,-0.0486604,2.49645],[-1.29132,-0.0468591,2.50882]],"scale":0.0,"deltaPhi":0.0,"deltaEta":0.0},{"energy":0.10606,"eta":1.4068,"phi":-3.09603,"time":8.83037,"detid":838968001,"front_1":[-1.29355,-0.0475766,2.50882],"front_2":[-1.31432,-0.0493701,2.49645],"front_3":[-1.31203,-0.0713968,2.49645],"front_4":[-1.2913,-0.0692372,2.50882],"back_1":[-1.40897,-0.0576728,2.70752],"back_2":[-1.43128,-0.0595991,2.69424],"back_3":[-1.42879,-0.083558,2.69424],"back_4":[-1.40652,-0.0812386,2.70752],"geometricVertices":[[-1.29355,-0.0475766,2.50882],[-1.31432,-0.0493701,2.49645],[-1.31203,-0.0713968,2.49645],[-1.2913,-0.0692372,2.50882],[-1.3024185190979858,-0.04835236106842042,2.5240874990882847],[-1.3233068684912657,-0.05015606680743123,2.51164761216559],[-1.3210017962881095,-0.07233126222181362,2.511648112262977],[-1.3001534887223654,-0.07015938590134176,2.5240880802736854]],"scale":0.01767339708820535,"deltaPhi":0.0,"deltaEta":0.0},{"energy":0.167205,"eta":1.40756,"phi":-3.07886,"time":5.53077,"detid":838968002,"front_1":[-1.29125,-0.0696818,2.50882],"front_2":[-1.31198,-0.0718413,2.49645],"front_3":[-1.30969,-0.0938679,2.49645],"front_4":[-1.28899,-0.0913424,2.50882],"back_1":[-1.40647,-0.0816833,2.70752],"back_2":[-1.42874,-0.0840025,2.69424],"back_3":[-1.42624,-0.107961,2.69424],"back_4":[-1.40402,-0.105249,2.70752],"geometricVertices":[[-1.29125,-0.0696818,2.50882],[-1.31198,-0.0718413,2.49645],[-1.30969,-0.0938679,2.49645],[-1.28899,-0.0913424,2.50882],[-1.305207642355641,-0.07113565041426162,2.5328903309847757],[-1.3261241561225094,-0.07331449211576792,2.5204100260317843],[-1.3238084867315618,-0.09557509215235155,2.5204096352692886],[-1.3029238871320044,-0.0930269431173601,2.5328890547955254]],"scale":0.027862345466088772,"deltaPhi":0.0,"deltaEta":0.0},{"energy":0.0,"eta":1.40676,"phi":-3.06156,"time":-25.9239,"detid":838968003,"front_1":[-1.2912,-0.0921373,2.50882],"front_2":[-1.3119,-0.0946553,2.49645],"front_3":[-1.30884,-0.116588,2.49645],"front_4":[-1.28819,-0.113706,2.50882],"back_1":[-1.4062,-0.106259,2.70752],"back_2":[-1.42843,-0.108963,2.69424],"back_3":[-1.4251,-0.13282,2.69424],"back_4":[-1.40292,-0.129724,2.70752],"geometricVertices":[[-1.2912,-0.0921373,2.50882],[-1.3119,-0.0946553,2.49645],[-1.30884,-0.116588,2.49645],[-1.28819,-0.113706,2.50882],[-1.2912,-0.0921373,2.50882],[-1.3119,-0.0946553,2.49645],[-1.30884,-0.116588,2.49645],[-1.28819,-0.113706,2.50882]],"scale":0.0,"deltaPhi":0.0,"deltaEta":0.0},{"energy":0.467981,"eta":1.40674,"phi":-3.02708,"time":-5.11751,"detid":838968005,"front_1":[-1.28729,-0.136589,2.50882],"front_2":[-1.30789,-0.139828,2.49645],"front_3":[-1.30406,-0.161641,2.49645],"front_4":[-1.28353,-0.158039,2.50882],"back_1":[-1.40173,-0.154718,2.70752],"back_2":[-1.42385,-0.158197,2.69424],"back_3":[-1.41969,-0.181923,2.69424],"back_4":[-1.39764,-0.178055,2.70752],"geometricVertices":[[-1.28729,-0.136589,2.50882],[-1.30789,-0.139828,2.49645],[-1.30406,-0.161641,2.49645],[-1.28353,-0.158039,2.50882],[-1.3260888159242918,-0.14273531015284413,2.5761856477119607],[-1.3472048275339796,-0.14605578602079744,2.5635082937042584],[-1.3432638659052367,-0.16851752692458713,2.5635098688696423],[-1.322218193843319,-0.16482528418164819,2.576187839073416]],"scale":0.07798240658811453,"deltaPhi":0.0,"deltaEta":0.0},{"energy":0.014748,"eta":1.42509,"phi":3.03191,"time":-0.927919,"detid":838968504,"front_1":[-1.28353,0.152794,2.5577],"front_2":[-1.30441,0.154277,2.54549],"front_3":[-1.30598,0.132187,2.54549],"front_4":[-1.28507,0.131071,2.5577],"back_1":[-1.39754,0.160889,2.75729],"back_2":[-1.41997,0.162482,2.74418],"back_3":[-1.42168,0.138454,2.74418],"back_4":[-1.39922,0.137255,2.75729],"geometricVertices":[[-1.28353,0.152794,2.5577],[-1.30441,0.154277,2.54549],[-1.30598,0.132187,2.54549],[-1.28507,0.131071,2.5577],[-1.2847481948092867,0.15288049493010417,2.559832615577454],[-1.3056447661657948,0.15436467096218714,2.5476130156583743],[-1.3072162114855779,0.13225396056508312,2.547612928781932],[-1.2862896370435508,0.1311370730221403,2.559832521747896]],"scale":0.0024575453541094898,"deltaPhi":0.0,"deltaEta":0.0},{"energy":0.0,"eta":1.42426,"phi":3.04922,"time":24.0691,"detid":838968505,"front_1":[-1.28738,0.130672,2.5577],"front_2":[-1.30829,0.131792,2.54549],"front_3":[-1.30909,0.109661,2.54549],"front_4":[-1.28816,0.108908,2.5577],"back_1":[-1.40154,0.136694,2.75729],"back_2":[-1.424,0.137897,2.74418],"back_3":[-1.42486,0.113824,2.74418],"back_4":[-1.40239,0.113016,2.75729],"geometricVertices":[[-1.28738,0.130672,2.5577],[-1.30829,0.131792,2.54549],[-1.30909,0.109661,2.54549],[-1.28816,0.108908,2.5577],[-1.28738,0.130672,2.5577],[-1.30829,0.131792,2.54549],[-1.30909,0.109661,2.54549],[-1.28816,0.108908,2.5577]],"scale":0.0,"deltaPhi":0.0,"deltaEta":0.0},{"energy":0.0,"eta":1.425,"phi":3.0664,"time":24.0691,"detid":838968506,"front_1":[-1.28818,0.108461,2.5577],"front_2":[-1.30911,0.109214,2.54549],"front_3":[-1.3099,0.0870824,2.54549],"front_4":[-1.28896,0.0866975,2.5577],"back_1":[-1.4024,0.112569,2.75729],"back_2":[-1.42488,0.113377,2.74418],"back_3":[-1.42575,0.0893044,2.74418],"back_4":[-1.40326,0.0888909,2.75729],"geometricVertices":[[-1.28818,0.108461,2.5577],[-1.30911,0.109214,2.54549],[-1.3099,0.0870824,2.54549],[-1.28896,0.0866975,2.5577],[-1.28818,0.108461,2.5577],[-1.30911,0.109214,2.54549],[-1.3099,0.0870824,2.54549],[-1.28896,0.0866975,2.5577]],"scale":0.0,"deltaPhi":0.0,"deltaEta":0.0},{"energy":0.0,"eta":1.42417,"phi":3.08371,"time":24.0691,"detid":838968507,"front_1":[-1.29126,0.0862178,2.5577],"front_2":[-1.3122,0.0866069,2.54549],"front_3":[-1.31222,0.0644611,2.54549],"front_4":[-1.29128,0.06444,2.5577],"back_1":[-1.40556,0.0882491,2.75729],"back_2":[-1.42805,0.088667,2.74418],"back_3":[-1.42807,0.0645785,2.74418],"back_4":[-1.40558,0.0645558,2.75729],"geometricVertices":[[-1.29126,0.0862178,2.5577],[-1.3122,0.0866069,2.54549],[-1.31222,0.0644611,2.54549],[-1.29128,0.06444,2.5577],[-1.29126,0.0862178,2.5577],[-1.3122,0.0866069,2.54549],[-1.31222,0.0644611,2.54549],[-1.29128,0.06444,2.5577]],"scale":0.0,"deltaPhi":0.0,"deltaEta":0.0},{"energy":0.111019,"eta":1.42491,"phi":3.10088,"time":-3.10483,"detid":838968508,"front_1":[-1.29128,0.0639929,2.5577],"front_2":[-1.31222,0.0640142,2.54549],"front_3":[-1.31224,0.0418684,2.54549],"front_4":[-1.2913,0.0422152,2.5577],"back_1":[-1.40558,0.0641087,2.75729],"back_2":[-1.42807,0.0641315,2.74418],"back_3":[-1.4281,0.040043,2.74418],"back_4":[-1.4056,0.0404155,2.75729],"geometricVertices":[[-1.29128,0.0639929,2.5577],[-1.31222,0.0640142,2.54549],[-1.31224,0.0418684,2.54549],[-1.2913,0.0422152,2.5577],[-1.3004735101868798,0.06400221415992687,2.573753654402444],[-1.3215383329983073,0.0640236349629754,2.5614715242419828],[-1.321558640989934,0.04172158274414789,2.561470673038926],[-1.3004932299219385,0.04207044885485116,2.5737531650054217]],"scale":0.01849974421398708,"deltaPhi":0.0,"deltaEta":0.0},{"energy":0.0,"eta":1.4241,"phi":3.11819,"time":24.0691,"detid":838968509,"front_1":[-1.29358,0.0416554,2.5577],"front_2":[-1.31452,0.041313,2.54549],"front_3":[-1.31377,0.01918,2.54549],"front_4":[-1.29284,0.0198901,2.5577],